%YAML:1.0
---
opencv_ml_svm:
   format: 3
   svmType: C_SVC
   kernel:
      type: RBF
      gamma: 1.
   C: 1.
   term_criteria: { epsilon:1.0000000000000000e-08, iterations:100000 }
   var_count: 756
   class_count: 4
   class_labels: !!opencv-matrix
      rows: 4
      cols: 1
      dt: i
      data: [ 0, 1, 2, 3 ]
   sv_total: 48
   support_vectors:
      - [ 3.08329076e-01, 1.09293692e-01, 9.91796330e-02, 6.21462800e-02,
          3.46383661e-01, 2.51084045e-02, 9.82460380e-03, 3.88935721e-03,
          2.93572366e-01, 3.46383661e-01, 7.41548315e-02, 8.44441876e-02,
          5.59964776e-02, 3.07652503e-01, 3.18140388e-02, 1.98527109e-02,
          2.27236133e-02, 3.46383661e-01, 3.78541946e-02, 2.78070122e-02,
          6.10021017e-02, 6.01473860e-02, 3.46383661e-01, 4.84872162e-02,
          1.52631337e-02, 9.73814167e-03, 3.26143131e-02, 1.17020197e-01,
          8.74861926e-02, 1.18100651e-01, 7.95842558e-02, 3.46383661e-01,
          8.04610923e-02, 4.79857437e-02, 3.53796035e-02, 1.08214915e-01,
          2.88174570e-01, 9.02622491e-02, 5.71968779e-02, 2.92547345e-02,
          4.08668816e-02, 2.11930871e-02, 1.68451313e-02, 3.64495851e-02,
          2.88174570e-01, 2.88174570e-01, 1.60347819e-01, 1.46005154e-01,
          4.78981026e-02, 6.49193898e-02, 5.93052581e-02, 1.01461820e-01,
          1.56607389e-01, 2.88174570e-01, 1.38883412e-01, 9.63538289e-02,
          7.43736029e-02, 6.27378598e-02, 1.08366944e-01, 9.51501280e-02,
          8.16583633e-02, 6.21781982e-02, 1.39559090e-01, 2.52601594e-01,
          2.11565867e-01, 2.12387756e-01, 1.45457000e-01, 2.37231150e-01,
          1.82112619e-01, 2.71328747e-01, 2.17419282e-01, 2.88174570e-01,
          2.50018656e-01, 9.96466875e-02, 9.40811560e-02, 3.41599099e-02,
          6.87245131e-02, 6.39937744e-02, 1.11305654e-01, 1.83664486e-01,
          2.50018656e-01, 2.50018656e-01, 5.15565276e-02, 3.76159735e-02,
          2.58940347e-02, 4.61749770e-02, 4.09238189e-02, 4.91419397e-02,
          1.17766514e-01, 2.50018656e-01, 2.50018656e-01, 2.01244295e-01,
          1.69921651e-01, 1.40595913e-01, 2.13299260e-01, 1.56278536e-01,
          2.00914502e-01, 2.08596781e-01, 2.50018656e-01, 2.50018656e-01,
          2.28086025e-01, 1.61072701e-01, 1.36408582e-01, 1.53912827e-01,
          1.27167061e-01, 8.96691233e-02, 1.30962342e-01, 2.35898972e-01,
          2.61916488e-01, 7.77234882e-02, 5.46747074e-02, 2.44972687e-02,
          1.95386838e-02, 2.39045992e-02, 6.21517375e-02, 1.23491034e-01,
          2.61916488e-01, 2.61916488e-01, 5.26005328e-02, 4.96824197e-02,
          2.21569706e-02, 1.42560694e-02, 2.54608206e-02, 1.04665190e-01,
          1.28915757e-01, 2.61916488e-01, 2.61916488e-01, 2.61916488e-01,
          2.26348951e-01, 1.36639178e-01, 9.91382301e-02, 1.29354358e-01,
          1.59575239e-01, 1.70635343e-01, 2.61916488e-01, 2.04111978e-01,
          1.34808764e-01, 1.48126423e-01, 1.02313124e-01, 8.37975964e-02,
          1.06306322e-01, 2.60356486e-01, 2.45542124e-01, 2.52275974e-01,
          2.82166958e-01, 7.81754851e-02, 1.15407906e-01, 4.71234210e-02,
          3.13295573e-02, 2.34859753e-02, 6.87814727e-02, 9.23663974e-02,
          2.82166958e-01, 2.82166958e-01, 1.28554404e-01, 1.51657194e-01,
          5.82598224e-02, 4.81184162e-02, 1.87826939e-02, 4.84527797e-02,
          7.87630752e-02, 2.82166958e-01, 2.70200521e-01, 1.68873668e-01,
          1.75900951e-01, 7.93366283e-02, 8.14058706e-02, 9.64261219e-02,
          1.85963601e-01, 2.04764307e-01, 2.70530939e-01, 2.82166958e-01,
          2.00273275e-01, 1.57310501e-01, 5.49598970e-02, 5.07212840e-02,
          4.61139046e-02, 9.92319062e-02, 2.05127329e-01, 2.82166958e-01,
          2.92022109e-01, 4.91866358e-02, 4.44161259e-02, 2.37295013e-02,
          3.94266509e-02, 1.98453069e-02, 3.41767520e-02, 5.34318052e-02,
          2.92022109e-01, 2.92022109e-01, 1.48106124e-02, 2.16715634e-02,
          1.69642475e-02, 2.43837282e-01, 4.15209197e-02, 2.94244643e-02,
          3.76873054e-02, 2.92022109e-01, 2.34340221e-01, 1.04701318e-01,
          9.22169089e-02, 4.58674803e-02, 9.40492675e-02, 6.20692261e-02,
          1.25710741e-01, 1.77208513e-01, 2.37811133e-01, 2.92022109e-01,
          1.28147125e-01, 1.70818746e-01, 8.30646381e-02, 2.92022109e-01,
          1.13418676e-01, 1.99894696e-01, 1.62812397e-01, 2.92022109e-01,
          3.73842597e-01, 4.84696357e-03, 8.16226657e-03, 1.77820530e-02,
          3.81056875e-01, 4.97461036e-02, 8.02755505e-02, 7.38148913e-02,
          3.67246449e-01, 8.52390751e-02, 1.11196632e-03, 2.24954286e-03,
          1.66766662e-02, 3.81056875e-01, 4.42489833e-02, 1.27112299e-01,
          8.28352422e-02, 1.18268959e-01, 1.43445894e-01, 5.32013066e-02,
          7.34626800e-02, 5.22311889e-02, 3.81056875e-01, 7.86989480e-02,
          9.87102985e-02, 7.72953779e-02, 1.47925973e-01, 4.78060218e-03,
          2.40253308e-03, 2.29307706e-03, 3.13889347e-02, 3.81056875e-01,
          4.77540120e-02, 2.19299793e-02, 1.75217167e-02, 6.74354983e-03,
          2.59083956e-02, 2.61231232e-02, 3.92420366e-02, 8.04000869e-02,
          4.56274241e-01, 5.89900576e-02, 2.05383990e-02, 1.50492089e-02,
          1.09110987e-02, 5.80936559e-02, 7.26667270e-02, 7.59847909e-02,
          8.68987888e-02, 4.56274241e-01, 1.05190590e-01, 9.44076926e-02,
          6.10476434e-02, 3.98788974e-02, 1.95468143e-02, 1.53668709e-02,
          1.73132699e-02, 9.79167968e-02, 4.56274241e-01, 7.13666826e-02,
          7.48929828e-02, 4.04884703e-02, 2.23295838e-02, 4.91553247e-02,
          3.59536260e-02, 3.57250087e-02, 8.50954801e-02, 4.56274241e-01,
          9.52638462e-02, 1.70197606e-01, 1.46388456e-01, 8.22991356e-02,
          5.98933585e-02, 6.93146512e-02, 6.57189712e-02, 5.87532967e-02,
          1.35776311e-01, 1.27481073e-01, 1.37029931e-01, 8.80641118e-02,
          6.63206428e-02, 2.29325935e-01, 2.16417536e-01, 2.29325935e-01,
          1.71142012e-01, 2.29325935e-01, 2.29325935e-01, 2.29325935e-01,
          2.22823501e-01, 2.29325935e-01, 6.87496960e-02, 5.32085411e-02,
          5.94164431e-02, 4.11305055e-02, 8.46463144e-02, 8.78392756e-02,
          1.38159230e-01, 1.55635118e-01, 1.13542266e-01, 1.92140266e-01,
          1.68897182e-01, 2.25861609e-01, 1.58107147e-01, 2.29325935e-01,
          2.29325935e-01, 2.29325935e-01, 2.29325935e-01, 1.97305724e-01,
          2.16639206e-01, 1.63494974e-01, 1.25983223e-01, 1.20438367e-01,
          2.04023495e-01, 1.35025650e-01, 1.44683853e-01, 1.71741843e-01,
          2.16639206e-01, 2.16639206e-01, 2.16639206e-01, 1.36359617e-01,
          1.15134344e-01, 1.35505185e-01, 1.52944222e-01, 1.05441801e-01,
          1.49347469e-01, 2.16639206e-01, 1.99285880e-01, 9.49864462e-02,
          8.51800367e-02, 8.34313408e-02, 2.16639206e-01, 2.02125996e-01,
          1.44887254e-01, 1.97975367e-01, 2.09624127e-01, 2.16639206e-01,
          1.23928457e-01, 7.70205483e-02, 5.80724999e-02, 1.65639281e-01,
          1.50898948e-01, 1.57231778e-01, 2.07646608e-01, 2.10335001e-01,
          2.09391981e-01, 2.09391981e-01, 2.09391981e-01, 1.60796165e-01,
          1.26857728e-01, 2.09391981e-01, 1.69363722e-01, 1.44662917e-01,
          1.79510206e-01, 1.77480608e-01, 1.62503898e-01, 1.54154897e-01,
          1.56997859e-01, 1.13120526e-01, 1.40777364e-01, 1.85862452e-01,
          1.60852507e-01, 1.79952189e-01, 2.09391981e-01, 2.09391981e-01,
          1.76633701e-01, 1.02392055e-01, 1.17070571e-01, 1.67586133e-01,
          1.80395544e-01, 1.71120629e-01, 2.02707723e-01, 1.88404158e-01,
          2.09391981e-01, 2.09391981e-01, 1.32287621e-01, 8.40379670e-02,
          9.96859670e-02, 8.22328776e-02, 8.06489810e-02, 1.48246452e-01,
          2.37536892e-01, 1.77211389e-01, 1.50157988e-01, 1.31016582e-01,
          1.17394991e-01, 1.38700679e-01, 1.61253437e-01, 1.71386495e-01,
          2.13109389e-01, 2.33350873e-01, 1.64632872e-01, 1.20946288e-01,
          6.57627061e-02, 7.33757019e-02, 6.27763271e-02, 9.30676237e-02,
          1.86735570e-01, 2.37536892e-01, 2.04009637e-01, 2.37536892e-01,
          2.37536892e-01, 1.68247625e-01, 1.38369277e-01, 1.07157901e-01,
          5.64384870e-02, 5.54566495e-02, 1.38306245e-01, 2.37536892e-01,
          2.37536892e-01, 2.37536892e-01, 1.37682140e-01, 1.69274807e-01,
          8.69548023e-02, 6.06319383e-02, 5.61154932e-02, 2.37536892e-01,
          1.31221294e-01, 8.70988443e-02, 1.06678605e-01, 3.15938629e-02,
          9.10965204e-02, 3.72373238e-02, 9.64576378e-02, 1.14762299e-01,
          1.44579291e-01, 2.49524578e-01, 1.56787589e-01, 2.30178818e-01,
          7.84620792e-02, 2.49524578e-01, 9.70471799e-02, 2.20464975e-01,
          1.60946667e-01, 2.49524578e-01, 1.98859438e-01, 1.60860792e-01,
          2.04311892e-01, 3.65683883e-02, 1.19818084e-01, 5.38317002e-02,
          7.62533695e-02, 7.04457685e-02, 1.74890846e-01, 2.49524578e-01,
          1.90329283e-01, 2.49524578e-01, 7.25350901e-02, 2.49524578e-01,
          1.11554801e-01, 2.28374600e-01, 1.74838185e-01, 2.49524578e-01,
          1.56855926e-01, 9.18935090e-02, 1.37069836e-01, 7.37951696e-02,
          4.26620811e-01, 9.35101286e-02, 1.25638813e-01, 9.51941684e-02,
          1.75626859e-01, 7.92216882e-03, 1.08073037e-02, 5.49009582e-03,
          3.10366638e-02, 4.26620811e-01, 3.49558927e-02, 7.11112656e-03,
          1.29404562e-02, 8.04302562e-03, 1.74741417e-01, 1.07706219e-01,
          1.52913630e-01, 8.26408193e-02, 4.26620811e-01, 9.79547054e-02,
          1.51510447e-01, 1.01191476e-01, 1.59451947e-01, 6.39138324e-03,
          1.21332267e-02, 8.24709889e-03, 3.56450975e-02, 4.26620811e-01,
          3.46804224e-02, 3.54894227e-03, 2.70213746e-03, 3.10926023e-03,
          2.38052979e-02, 8.70800950e-03, 1.96079034e-02, 3.96905467e-02,
          3.31131011e-01, 4.25154567e-02, 6.49726316e-02, 5.03269248e-02,
          3.21394168e-02, 7.58397281e-02, 2.87437588e-02, 4.25508879e-02,
          4.23573516e-02, 3.31131011e-01, 4.83924225e-02, 1.24117143e-01,
          1.48389250e-01, 1.31761730e-01, 3.18925977e-01, 1.17724668e-02,
          2.44917143e-02, 2.28311382e-02, 3.31131011e-01, 4.50404175e-02,
          1.20148204e-01, 1.13280945e-01, 3.09241652e-01, 3.31131011e-01,
          3.80019210e-02, 5.46726659e-02, 3.84635068e-02, 3.31131011e-01,
          4.59398925e-02, 9.33704898e-02, 1.21061809e-01, 3.31131011e-01,
          1.47721544e-01, 5.20425104e-02, 3.30645964e-02, 2.19519529e-02,
          6.22986630e-02, 4.54400443e-02, 9.04312655e-02, 1.57126650e-01,
          2.38020822e-01, 2.09325254e-01, 8.49715173e-02, 1.18259452e-01,
          9.06157270e-02, 1.73162952e-01, 1.92250833e-01, 1.67083159e-01,
          1.85034052e-01, 2.27128804e-01, 3.76612902e-01, 4.90186401e-02,
          2.65612938e-02, 2.27003675e-02, 6.79956004e-02, 2.89477408e-02,
          5.41929863e-02, 9.02218446e-02, 3.76612902e-01, 3.76612902e-01,
          7.26074874e-02, 6.27115220e-02, 4.08220664e-02, 5.33397719e-02,
          6.85193390e-02, 8.12256113e-02, 9.06906202e-02, 3.76612902e-01,
          2.53287613e-01, 1.00484878e-01, 1.43929690e-01, 1.05395883e-01,
          2.39499703e-01, 2.47552425e-01, 1.54198542e-01, 1.96271494e-01,
          2.44429618e-01, 2.59684235e-01, 1.83600515e-01, 1.72079802e-01,
          6.64017946e-02, 1.59462899e-01, 1.32046655e-01, 1.14938833e-01,
          1.37947977e-01, 2.50969082e-01, 2.59684235e-01, 1.05744250e-01,
          1.28725260e-01, 4.11615670e-02, 6.06610924e-02, 8.41434896e-02,
          7.52205476e-02, 1.02300681e-01, 2.59684235e-01, 2.59684235e-01,
          1.26590371e-01, 1.65245011e-01, 2.73292456e-02, 4.61022556e-02,
          4.52793762e-02, 2.90002227e-02, 4.70837317e-02, 2.59684235e-01,
          2.53615886e-01, 2.53615886e-01, 2.19531551e-01, 7.93305114e-02,
          1.05126962e-01, 1.04161449e-01, 1.36455253e-01, 1.53481275e-01,
          2.53615886e-01, 2.53615886e-01, 2.53615886e-01, 2.53615886e-01,
          9.22850370e-02, 7.12104440e-02, 7.56864250e-02, 1.07602403e-01,
          1.40166476e-01, 2.53615886e-01, 2.53615886e-01, 1.17534250e-01,
          1.16367966e-01, 3.00933700e-02, 3.97109911e-02, 3.33603956e-02,
          5.03610969e-02, 6.46403879e-02, 2.53615886e-01, 2.53615886e-01,
          1.61871284e-01, 1.20376371e-01, 2.80271117e-02, 3.20596024e-02,
          3.49245295e-02, 1.47569314e-01, 1.32889509e-01, 2.53615886e-01,
          1.71682477e-01, 1.92503676e-01, 2.77067035e-01, 9.06012580e-02,
          1.06912717e-01, 5.30660190e-02, 6.72024116e-02, 6.52101561e-02,
          1.32403076e-01, 2.71558642e-01, 2.52335131e-01, 2.77067035e-01,
          1.29142806e-01, 1.96573660e-01, 9.42818299e-02, 1.37377992e-01,
          1.20375901e-01, 2.51594782e-01, 2.77067035e-01, 1.00750536e-01,
          9.97839719e-02, 4.24056835e-02, 5.49095571e-02, 2.46199947e-02,
          1.11856744e-01, 1.00005910e-01, 2.77067035e-01, 2.77067035e-01,
          8.93238485e-02, 7.55292475e-02, 6.19131401e-02, 8.78389031e-02,
          5.06943539e-02, 1.50910571e-01, 1.56343505e-01, 2.77067035e-01,
          2.55073249e-01, 1.67391598e-01, 1.59670308e-01, 5.49630187e-02,
          1.30469278e-01, 7.39070997e-02, 9.64834467e-02, 9.90218073e-02,
          2.29853734e-01, 2.91959047e-01, 1.49520531e-01, 1.74976975e-01,
          7.38077611e-02, 2.95313269e-01, 9.76539627e-02, 1.48277208e-01,
          1.27358019e-01, 2.52561510e-01, 2.95313269e-01, 7.50046819e-02,
          4.44604233e-02, 3.04837916e-02, 4.77101356e-02, 3.22743580e-02,
          6.71793371e-02, 8.76248851e-02, 2.95313269e-01, 2.95313269e-01,
          6.78145811e-02, 7.39090592e-02, 4.54683639e-02, 2.17530400e-01,
          4.38153222e-02, 4.19245772e-02, 5.11140600e-02, 2.95313269e-01,
          1.46882609e-01, 7.98254013e-02, 1.14508532e-01, 8.17622468e-02,
          3.73332590e-01, 6.48240671e-02, 8.62889215e-02, 5.74365221e-02,
          1.25643983e-01, 5.35784801e-03, 5.50093269e-03, 1.04762735e-02,
          4.27059457e-02, 3.73332590e-01, 2.65229195e-02, 3.06649180e-03,
          1.60587474e-03, 7.72514986e-03, 3.73332590e-01, 8.29210058e-02,
          1.19029917e-01, 7.83191398e-02, 3.73332590e-01, 2.75789369e-02,
          1.61829088e-02, 1.72204413e-02, 3.73332590e-01, 1.28935933e-01,
          6.76919743e-02, 1.14785671e-01, 7.67159835e-02, 3.73332590e-01,
          8.59245099e-03, 1.56427431e-03, 1.68083806e-03, 9.95899737e-02 ]
      - [ 1.14546791e-01, 5.53513318e-02, 8.35734010e-02, 2.18475252e-01,
          3.38770539e-01, 1.37612313e-01, 4.98731025e-02, 5.15144356e-02,
          1.18733272e-01, 6.77633286e-02, 5.94186932e-02, 6.32513836e-02,
          3.08134526e-01, 3.38770539e-01, 1.97635725e-01, 4.79044579e-02,
          4.81957011e-02, 7.35678673e-02, 6.99262694e-02, 6.54894114e-02,
          1.05078220e-01, 2.40687922e-01, 3.38770539e-01, 1.22868843e-01,
          5.78325242e-02, 7.34965354e-02, 6.48599416e-02, 7.19429478e-02,
          6.42896965e-02, 9.35090035e-02, 3.22116494e-01, 3.38770539e-01,
          1.57555163e-01, 7.45331198e-02, 6.93521574e-02, 9.54776183e-02,
          9.35889184e-02, 5.63614070e-02, 6.55269250e-02, 2.26220474e-01,
          3.15772742e-01, 1.19166531e-01, 4.16911095e-02, 5.02458178e-02,
          8.57560560e-02, 8.82093832e-02, 4.74611111e-02, 7.34874085e-02,
          3.15772742e-01, 3.15772742e-01, 1.72149956e-01, 5.64976931e-02,
          4.74035852e-02, 7.83371031e-02, 1.48246512e-01, 6.15908019e-02,
          8.36114809e-02, 2.22364530e-01, 3.15772742e-01, 1.23541430e-01,
          8.19903687e-02, 6.85705617e-02, 1.66146234e-01, 1.49188027e-01,
          5.89940101e-02, 1.13114737e-01, 3.15772742e-01, 3.15772742e-01,
          1.91295192e-01, 9.29497927e-02, 6.86173365e-02, 1.54043794e-01,
          8.59678835e-02, 6.55183792e-02, 1.03023320e-01, 2.32373506e-01,
          3.23476195e-01, 1.39375731e-01, 7.70055354e-02, 8.02018270e-02,
          9.19153094e-02, 9.94652957e-02, 7.32811764e-02, 1.05940402e-01,
          1.70759365e-01, 3.23476195e-01, 1.62334025e-01, 8.15493539e-02,
          8.29068050e-02, 9.74053890e-02, 1.64689273e-01, 7.90444985e-02,
          1.30067185e-01, 2.33802006e-01, 3.23476195e-01, 1.67049453e-01,
          8.49457309e-02, 1.00962073e-01, 1.70317516e-01, 1.45990223e-01,
          7.29843453e-02, 1.21290669e-01, 2.32636869e-01, 3.23476195e-01,
          1.93021223e-01, 9.80607793e-02, 9.36234146e-02, 1.62161872e-01,
          1.10804543e-01, 8.20632800e-02, 7.69866779e-02, 1.27975166e-01,
          3.24034542e-01, 1.25045225e-01, 7.52005652e-02, 6.57605305e-02,
          9.11647528e-02, 1.46118209e-01, 7.61828125e-02, 8.57411250e-02,
          2.61045218e-01, 3.24034542e-01, 2.87412524e-01, 8.75080004e-02,
          8.25721323e-02, 1.24075770e-01, 1.21872291e-01, 8.38231370e-02,
          8.08376223e-02, 1.48644120e-01, 3.24034542e-01, 1.48837239e-01,
          8.60801861e-02, 7.42298365e-02, 1.23498790e-01, 1.57962218e-01,
          8.64239186e-02, 9.20284390e-02, 2.08434522e-01, 3.24034542e-01,
          2.50525504e-01, 8.08613002e-02, 8.76294971e-02, 1.55721202e-01,
          2.15503290e-01, 6.36664629e-02, 5.90989739e-02, 1.81904733e-01,
          2.54234403e-01, 2.02810526e-01, 5.92809729e-02, 9.23856869e-02,
          1.72512561e-01, 2.54234403e-01, 1.20145120e-01, 9.94613394e-02,
          1.57728776e-01, 2.54234403e-01, 1.57337278e-01, 9.62579548e-02,
          1.26720443e-01, 2.40561575e-01, 1.98992148e-01, 6.81631342e-02,
          8.35865289e-02, 1.55290604e-01, 2.54234403e-01, 1.69060096e-01,
          6.74536601e-02, 9.21665654e-02, 1.75059557e-01, 2.54234403e-01,
          1.14931725e-01, 1.01596199e-01, 1.54543653e-01, 2.14917988e-01,
          1.54635713e-01, 1.30718291e-01, 1.40835673e-01, 2.12258264e-01,
          2.14675710e-01, 1.46148756e-01, 1.17467344e-01, 1.98389679e-01,
          2.14675710e-01, 1.77262545e-01, 9.91106778e-02, 1.35126144e-01,
          2.11843014e-01, 2.14675710e-01, 1.49749592e-01, 1.09382913e-01,
          1.56071767e-01, 2.05718055e-01, 1.03562959e-01, 9.73032266e-02,
          1.45461097e-01, 2.14675710e-01, 1.91440955e-01, 1.40895307e-01,
          1.11832455e-01, 1.66332409e-01, 2.14675710e-01, 1.73450410e-01,
          1.35273769e-01, 1.63152918e-01, 1.76159814e-01, 1.72210962e-01,
          1.51628196e-01, 1.03164233e-01, 2.10326791e-01, 2.14675710e-01,
          1.31564185e-01, 1.08278587e-01, 1.66165426e-01, 1.82046488e-01,
          2.28278309e-01, 1.24325030e-01, 1.22544236e-01, 1.75257325e-01,
          2.28278309e-01, 1.11246921e-01, 1.10400185e-01, 1.07418932e-01,
          2.28278309e-01, 2.28278309e-01, 1.04512066e-01, 1.20828114e-01,
          1.47920147e-01, 2.28278309e-01, 1.49323508e-01, 9.36822817e-02,
          1.15512528e-01, 2.28278309e-01, 1.46519884e-01, 1.09388873e-01,
          1.09229833e-01, 2.28278309e-01, 2.28278309e-01, 1.62134543e-01,
          1.03583083e-01, 1.11853264e-01, 1.66083232e-01, 2.09784865e-01,
          8.91400725e-02, 1.36812359e-01, 1.98961496e-01, 2.28278309e-01,
          1.82924300e-01, 9.33225900e-02, 1.12208962e-01, 2.28278309e-01,
          9.54010040e-02, 7.20155835e-02, 8.77597928e-02, 2.25769371e-01,
          3.33258837e-01, 1.54749900e-01, 5.14931008e-02, 8.64380151e-02,
          8.92375708e-02, 1.02464877e-01, 5.99466525e-02, 9.20829698e-02,
          2.50253111e-01, 3.33258837e-01, 1.85665324e-01, 7.80810714e-02,
          8.28745887e-02, 1.14748463e-01, 1.11806713e-01, 7.38874003e-02,
          7.02750534e-02, 2.02232048e-01, 3.33258837e-01, 2.19161227e-01,
          7.94742703e-02, 7.63459206e-02, 1.10925503e-01, 1.21932819e-01,
          7.82013535e-02, 7.33766705e-02, 1.99954361e-01, 3.33258837e-01,
          2.46921852e-01, 8.56276900e-02, 8.55747014e-02, 1.15650952e-01,
          1.89106762e-01, 7.33426884e-02, 9.83022898e-02, 1.76812455e-01,
          2.62360305e-01, 1.52299717e-01, 9.59744304e-02, 7.55558088e-02,
          1.94107771e-01, 1.88211739e-01, 1.06406756e-01, 1.26310349e-01,
          2.18481466e-01, 2.62360305e-01, 2.16558278e-01, 1.01478636e-01,
          8.22190866e-02, 2.07968608e-01, 1.73699841e-01, 9.59663764e-02,
          7.88963661e-02, 1.44700974e-01, 2.62360305e-01, 1.87165454e-01,
          1.03519462e-01, 8.71255621e-02, 1.61258206e-01, 1.61122590e-01,
          1.47901177e-01, 1.07270896e-01, 1.93068132e-01, 2.62360305e-01,
          2.47394294e-01, 1.15931600e-01, 8.40174928e-02, 1.49463683e-01,
          1.62177771e-01, 9.36896801e-02, 9.39153358e-02, 1.54131502e-01,
          2.96979278e-01, 1.56731397e-01, 7.12192953e-02, 8.79345760e-02,
          1.59066245e-01, 1.41128659e-01, 8.30661729e-02, 9.58534926e-02,
          2.73900330e-01, 3.03411245e-01, 2.22241849e-01, 8.37898701e-02,
          7.47122467e-02, 1.23214751e-01, 1.10661834e-01, 1.19739503e-01,
          8.98499638e-02, 1.42893434e-01, 3.03411245e-01, 1.90396428e-01,
          8.02508667e-02, 8.82190168e-02, 9.28908139e-02, 1.03602655e-01,
          9.68326852e-02, 8.99448544e-02, 2.65886694e-01, 3.03411245e-01,
          2.86510825e-01, 8.34134147e-02, 8.67667720e-02, 6.64692819e-02,
          1.29416719e-01, 1.12592451e-01, 9.49034765e-02, 2.18313918e-01,
          2.91100025e-01, 1.75604254e-01, 9.99758467e-02, 8.96151066e-02,
          1.08693212e-01, 1.36190221e-01, 1.08237267e-01, 9.93317142e-02,
          1.90174803e-01, 2.91100025e-01, 2.05095917e-01, 1.12656496e-01,
          1.21892184e-01, 1.31522521e-01, 1.28863052e-01, 1.22989707e-01,
          1.20315336e-01, 2.23084733e-01, 2.91100025e-01, 2.12926686e-01,
          9.85618755e-02, 9.96423960e-02, 9.68724415e-02, 1.46222681e-01,
          1.22581832e-01, 1.34145439e-01, 2.15934142e-01, 2.91100025e-01,
          1.99570104e-01, 9.72476974e-02, 1.14908129e-01, 1.19569257e-01,
          1.76282406e-01, 8.20356533e-02, 1.04173049e-01, 1.61495954e-01,
          2.30569527e-01, 1.64434448e-01, 1.10575207e-01, 1.18249625e-01,
          1.78575367e-01, 2.23026469e-01, 1.21161930e-01, 1.11547142e-01,
          2.29958221e-01, 2.30569527e-01, 1.90764770e-01, 1.47446707e-01,
          1.71108559e-01, 2.05294490e-01, 1.46978021e-01, 1.37592107e-01,
          1.27361909e-01, 1.95392624e-01, 2.30569527e-01, 1.68209314e-01,
          7.85166547e-02, 9.20814872e-02, 1.24778986e-01, 1.79384023e-01,
          1.46600604e-01, 1.29334033e-01, 2.30569527e-01, 2.30569527e-01,
          1.93961933e-01, 1.13281772e-01, 1.13039650e-01, 1.60114914e-01,
          1.60536125e-01, 1.28896281e-01, 1.21731102e-01, 2.14841679e-01,
          2.14841679e-01, 1.93073735e-01, 1.34601727e-01, 1.83827281e-01,
          1.47385359e-01, 1.33490846e-01, 1.38678059e-01, 1.26900241e-01,
          2.14841679e-01, 2.14841679e-01, 1.83264941e-01, 1.50226235e-01,
          1.77774072e-01, 1.69297934e-01, 1.61814094e-01, 1.18246220e-01,
          1.20144166e-01, 2.14841679e-01, 2.14841679e-01, 1.89127490e-01,
          1.18836433e-01, 1.16705015e-01, 1.41499504e-01, 1.10158324e-01,
          1.22264735e-01, 1.53201252e-01, 2.04103425e-01, 2.14841679e-01,
          1.94990680e-01, 1.58191636e-01, 1.49205878e-01, 1.46322712e-01,
          8.73629823e-02, 1.03559829e-01, 1.07351109e-01, 2.25108549e-01,
          2.25108549e-01, 2.25108549e-01, 1.31063327e-01, 1.33974925e-01,
          1.27636403e-01, 1.13570265e-01, 9.66559574e-02, 1.25107393e-01,
          2.07457066e-01, 2.25108549e-01, 2.25108549e-01, 1.18104056e-01,
          1.57690629e-01, 1.65741205e-01, 7.32401535e-02, 1.10533997e-01,
          1.51810721e-01, 2.25108549e-01, 2.25108549e-01, 2.25108549e-01,
          1.44156545e-01, 1.44423589e-01, 1.00314468e-01, 1.24267995e-01,
          1.23996139e-01, 1.58974677e-01, 2.16190726e-01, 2.25108549e-01,
          2.04665259e-01, 1.53307691e-01, 1.71465442e-01, 1.52378723e-01,
          2.00182781e-01, 6.02207370e-02, 6.55314773e-02, 1.33472487e-01,
          2.56642073e-01, 1.95590198e-01, 9.20197964e-02, 8.32898617e-02,
          2.06875876e-01, 1.20013796e-01, 6.27258271e-02, 8.47247317e-02,
          1.51835531e-01, 2.56642073e-01, 1.98566601e-01, 8.93425494e-02,
          8.72260854e-02, 1.27234697e-01, 2.56642073e-01, 9.28477719e-02,
          8.11659992e-02, 1.36399940e-01, 2.56642073e-01, 1.87151864e-01,
          8.06011036e-02, 9.36532021e-02, 2.56642073e-01, 2.44042501e-01,
          8.85577425e-02, 1.11107051e-01, 1.56067893e-01, 2.56642073e-01,
          2.17174634e-01, 9.06772241e-02, 1.03628851e-01, 2.56642073e-01,
          1.08114168e-01, 8.67606178e-02, 7.91148245e-02, 1.42237723e-01,
          3.18609834e-01, 1.27908498e-01, 8.40411484e-02, 7.78244957e-02,
          1.03794694e-01, 9.87769291e-02, 1.19078681e-01, 7.64009356e-02,
          2.00338691e-01, 3.18609834e-01, 1.42720029e-01, 7.96596259e-02,
          6.66065291e-02, 7.90230483e-02, 2.41590321e-01, 7.05970004e-02,
          8.05844963e-02, 1.92838699e-01, 3.18609834e-01, 1.50173619e-01,
          8.20806995e-02, 8.82546380e-02, 2.52515733e-01, 1.27031073e-01,
          7.96229765e-02, 7.19550028e-02, 3.16918373e-01, 3.18609834e-01,
          1.80780172e-01, 7.83261210e-02, 7.07332566e-02, 1.33109704e-01,
          7.80179501e-02, 1.11342989e-01, 9.34446603e-02, 1.45931974e-01,
          3.24706733e-01, 1.50982335e-01, 7.19227195e-02, 9.33223590e-02,
          7.77637288e-02, 7.19305575e-02, 9.63689983e-02, 1.02344938e-01,
          2.11058855e-01, 3.24706733e-01, 2.43359298e-01, 7.40816370e-02,
          9.77031291e-02, 6.09804578e-02, 7.19423071e-02, 1.01176612e-01,
          9.70737040e-02, 2.38657847e-01, 3.24706733e-01, 1.41137064e-01,
          8.06209743e-02, 9.10573900e-02, 9.99718606e-02, 6.33916035e-02,
          1.26281440e-01, 1.23519167e-01, 3.24706733e-01, 3.24706733e-01,
          2.23789468e-01, 7.54876286e-02, 7.28261247e-02, 8.99110585e-02,
          1.22652829e-01, 1.27133697e-01, 1.36422753e-01, 1.80523336e-01,
          2.64128059e-01, 1.97954565e-01, 8.36940110e-02, 8.84380341e-02,
          1.02667913e-01, 1.63600266e-01, 1.23208486e-01, 1.83002532e-01,
          2.13364124e-01, 2.64128059e-01, 1.82843894e-01, 7.41947293e-02,
          9.30632949e-02, 1.14091404e-01, 1.20497443e-01, 1.51685759e-01,
          1.47909194e-01, 2.33915061e-01, 2.64128059e-01, 2.21179396e-01,
          9.02000517e-02, 7.40455687e-02, 1.24265924e-01, 1.54245391e-01,
          1.18886411e-01, 1.59348488e-01, 2.14581773e-01, 2.64128059e-01,
          2.21068189e-01, 1.09470293e-01, 8.47829282e-02, 1.42352626e-01,
          1.60775885e-01, 1.37988225e-01, 1.67677656e-01, 2.21717864e-01,
          2.25217327e-01, 1.70522511e-01, 7.18470961e-02, 9.77919325e-02,
          1.14252120e-01, 1.56928033e-01, 1.63230971e-01, 1.55443922e-01,
          2.09956691e-01, 2.05870837e-01, 1.74318179e-01, 1.25744551e-01,
          1.08388238e-01, 1.54338732e-01, 1.42380357e-01, 9.44832861e-02,
          1.53468192e-01, 2.23088950e-01, 2.25217327e-01, 1.83562204e-01,
          1.09671988e-01, 1.20258495e-01, 1.55745327e-01, 1.25675023e-01,
          1.07292138e-01, 1.62337184e-01, 2.25217327e-01, 2.25217327e-01,
          2.25217327e-01, 1.56262860e-01, 1.54124722e-01, 1.80706814e-01,
          1.39627114e-01, 1.49371073e-01, 1.32840022e-01, 1.68129548e-01,
          1.80205837e-01, 1.39411569e-01, 1.13750339e-01, 9.11507607e-02,
          1.25912338e-01, 1.35820195e-01, 1.48382917e-01, 1.69426486e-01,
          2.20160961e-01, 2.20053494e-01, 1.56499431e-01, 1.07448384e-01,
          1.21813998e-01, 1.38741985e-01, 1.55959755e-01, 1.29034594e-01,
          1.40057534e-01, 2.21609950e-01, 2.21609950e-01, 2.21609950e-01,
          1.41775325e-01, 1.20638832e-01, 1.62166268e-01, 2.21609950e-01,
          1.64885640e-01, 1.46488115e-01, 1.98589668e-01, 2.21609950e-01,
          1.80428118e-01, 1.42728999e-01, 1.66270673e-01, 2.21609950e-01,
          1.45919561e-01, 9.52760726e-02, 1.31189615e-01, 2.09841982e-01,
          2.24914223e-01, 1.54047638e-01, 8.89524370e-02, 1.05007574e-01,
          1.53178260e-01, 2.33483002e-01, 1.10530302e-01, 1.10522881e-01,
          1.60490707e-01, 2.29399174e-01, 1.51321039e-01, 1.22401170e-01,
          1.03292920e-01, 2.33483002e-01, 2.33483002e-01, 1.20516755e-01,
          1.02444641e-01, 1.90164804e-01, 2.33483002e-01, 1.49921641e-01,
          1.16040185e-01, 1.18672498e-01, 2.33483002e-01, 2.33483002e-01,
          1.24436907e-01, 9.54740494e-02, 1.51225820e-01, 2.24361673e-01,
          1.41266465e-01, 1.31465197e-01, 1.00576341e-01, 2.33483002e-01 ]
      - [ 2.38640070e-01, 1.73824579e-01, 1.42001927e-01, 8.17532539e-02,
          1.09099030e-01, 7.96127990e-02, 1.09543920e-01, 1.36419177e-01,
          2.38640070e-01, 2.38640070e-01, 1.90413266e-01, 1.12052143e-01,
          8.55278894e-02, 9.36154500e-02, 9.91440937e-02, 1.22087359e-01,
          1.53443590e-01, 2.38640070e-01, 2.38640070e-01, 1.80956140e-01,
          2.30551988e-01, 1.00815043e-01, 1.13885097e-01, 1.16729438e-01,
          1.05437741e-01, 1.49440795e-01, 2.38640070e-01, 2.38640070e-01,
          1.81175902e-01, 1.84732407e-01, 1.25040859e-01, 1.30157620e-01,
          1.28220946e-01, 1.58416077e-01, 1.60515994e-01, 2.38640070e-01,
          2.33176693e-01, 1.49713397e-01, 1.01708725e-01, 1.05151981e-01,
          9.94470119e-02, 7.69558698e-02, 9.82809216e-02, 2.09883377e-01,
          2.33176693e-01, 2.33176693e-01, 1.55947849e-01, 1.38005301e-01,
          1.11460671e-01, 1.35571852e-01, 8.68659765e-02, 1.14344344e-01,
          2.33176693e-01, 2.33176693e-01, 2.33176693e-01, 1.52076557e-01,
          1.20741054e-01, 1.57440603e-01, 1.46833330e-01, 9.90639031e-02,
          1.47325575e-01, 1.70681089e-01, 2.33176693e-01, 2.33176693e-01,
          1.97083071e-01, 1.64245635e-01, 1.40211076e-01, 1.35942012e-01,
          8.01219493e-02, 1.06950924e-01, 1.83524638e-01, 2.33176693e-01,
          2.40046740e-01, 1.48445502e-01, 1.17953323e-01, 1.13925949e-01,
          1.31995991e-01, 8.76267701e-02, 1.16442740e-01, 1.65471241e-01,
          2.40046740e-01, 2.40046740e-01, 1.63110584e-01, 1.08929634e-01,
          1.34859130e-01, 1.30593210e-01, 9.76919681e-02, 9.83707085e-02,
          1.59715071e-01, 2.40046740e-01, 2.40046740e-01, 1.88050002e-01,
          1.47007868e-01, 1.50068611e-01, 1.62159324e-01, 7.28958845e-02,
          9.33127552e-02, 1.53069675e-01, 2.40046740e-01, 2.40046740e-01,
          1.60215735e-01, 1.34809375e-01, 1.76795229e-01, 1.63778141e-01,
          1.00976452e-01, 1.18501946e-01, 1.83867559e-01, 2.40046740e-01,
          2.43623659e-01, 1.54784307e-01, 1.12490736e-01, 1.30173668e-01,
          1.13727756e-01, 9.71791074e-02, 9.15920883e-02, 1.65187851e-01,
          2.43623659e-01, 2.43623659e-01, 1.61015645e-01, 1.42250195e-01,
          1.35203406e-01, 1.28105998e-01, 1.08892418e-01, 1.31231904e-01,
          1.80867627e-01, 2.43623659e-01, 2.43623659e-01, 1.30092323e-01,
          1.30680293e-01, 1.48844585e-01, 1.14888228e-01, 1.10973150e-01,
          9.81293693e-02, 1.71519279e-01, 2.43623659e-01, 2.43623659e-01,
          1.82442382e-01, 1.32425085e-01, 1.61625266e-01, 1.32341594e-01,
          1.11112997e-01, 1.22456260e-01, 1.61152214e-01, 2.43623659e-01,
          2.36318663e-01, 1.60051778e-01, 1.32539302e-01, 1.17546059e-01,
          1.30949721e-01, 1.00157127e-01, 1.63674235e-01, 1.70398980e-01,
          2.36318663e-01, 2.36318663e-01, 1.39180332e-01, 1.46376237e-01,
          1.32756442e-01, 1.27159327e-01, 9.57717746e-02, 1.67484939e-01,
          1.68366551e-01, 2.36318663e-01, 2.36318663e-01, 1.68266028e-01,
          9.56849903e-02, 1.30257264e-01, 1.68838382e-01, 8.88601393e-02,
          1.28569514e-01, 1.60812706e-01, 2.36318663e-01, 2.36318663e-01,
          1.31074265e-01, 1.18559912e-01, 1.46300569e-01, 1.38893023e-01,
          1.19928479e-01, 1.35099605e-01, 1.81393415e-01, 2.36318663e-01,
          2.30657578e-01, 1.52643353e-01, 1.29356459e-01, 1.31807402e-01,
          1.53330922e-01, 1.03805572e-01, 1.11563720e-01, 1.29407048e-01,
          2.30657578e-01, 2.30657578e-01, 1.95976749e-01, 1.44479603e-01,
          1.43828660e-01, 1.60049304e-01, 1.28425822e-01, 9.47807804e-02,
          1.51454836e-01, 2.30657578e-01, 2.30657578e-01, 1.32426247e-01,
          1.12149782e-01, 1.65962622e-01, 1.52440771e-01, 1.64709434e-01,
          1.13773808e-01, 1.42011508e-01, 2.30657578e-01, 2.30657578e-01,
          1.77779615e-01, 1.21488854e-01, 1.45700902e-01, 1.79411411e-01,
          1.55746207e-01, 8.62020925e-02, 1.56781852e-01, 2.30657578e-01,
          2.23193035e-01, 1.90138280e-01, 1.41846046e-01, 1.40498012e-01,
          1.33885562e-01, 1.19465299e-01, 1.24433853e-01, 1.62472144e-01,
          2.23193035e-01, 2.08102316e-01, 1.65328056e-01, 1.35063261e-01,
          1.62405074e-01, 1.41439676e-01, 1.16418160e-01, 1.48121804e-01,
          2.07055867e-01, 2.23193035e-01, 2.23193035e-01, 1.72509655e-01,
          1.06791519e-01, 1.25140071e-01, 1.40825346e-01, 1.33009046e-01,
          1.07415095e-01, 1.53820246e-01, 2.23193035e-01, 2.23193035e-01,
          1.40885755e-01, 1.18240021e-01, 1.29695296e-01, 1.37690946e-01,
          1.31384656e-01, 1.50347576e-01, 2.15228319e-01, 2.23193035e-01,
          2.25460991e-01, 1.66089147e-01, 1.95487365e-01, 1.03684217e-01,
          1.23798944e-01, 1.22911058e-01, 1.10740528e-01, 1.66806251e-01,
          2.25460991e-01, 2.25460991e-01, 1.96405038e-01, 1.80877015e-01,
          1.42974645e-01, 1.47542790e-01, 1.19162202e-01, 1.68644741e-01,
          1.70603141e-01, 2.25460991e-01, 2.25460991e-01, 1.78260326e-01,
          1.37068897e-01, 7.30187297e-02, 9.19271037e-02, 1.05164126e-01,
          1.25283316e-01, 1.78507820e-01, 2.25460991e-01, 2.25460991e-01,
          2.09279299e-01, 1.37344718e-01, 1.22849777e-01, 7.31151775e-02,
          6.92093372e-02, 1.45377755e-01, 1.63625985e-01, 2.25460991e-01,
          2.24799559e-01, 2.12778434e-01, 1.24846421e-01, 1.77465320e-01,
          1.97208211e-01, 9.38913077e-02, 1.67315021e-01, 1.47649989e-01,
          2.24799559e-01, 2.24799559e-01, 2.21102074e-01, 1.35245919e-01,
          1.31704822e-01, 1.43672660e-01, 7.79162273e-02, 9.87322107e-02,
          1.28488973e-01, 2.11310461e-01, 2.24799559e-01, 2.16131717e-01,
          1.18584208e-01, 1.24840036e-01, 1.21748902e-01, 5.38347103e-02,
          1.30971923e-01, 1.68936297e-01, 2.24799559e-01, 2.24799559e-01,
          2.20070556e-01, 1.08940981e-01, 1.07636765e-01, 1.28155395e-01,
          6.28093854e-02, 1.08581945e-01, 1.67894557e-01, 2.24799559e-01,
          2.37660214e-01, 2.12871745e-01, 1.32623181e-01, 1.08182497e-01,
          1.15368828e-01, 6.67341724e-02, 8.84618536e-02, 1.36663914e-01,
          1.97415709e-01, 2.37660214e-01, 2.10600883e-01, 1.45656347e-01,
          1.53867841e-01, 1.64976120e-01, 1.17238410e-01, 1.35902137e-01,
          1.69731066e-01, 2.37660214e-01, 2.37660214e-01, 2.35951364e-01,
          1.04409270e-01, 8.89190957e-02, 8.32136273e-02, 5.82733303e-02,
          1.17722064e-01, 1.53787822e-01, 2.33328998e-01, 2.37660214e-01,
          2.11415529e-01, 1.03252672e-01, 1.08782366e-01, 1.03696235e-01,
          1.04526587e-01, 1.44648343e-01, 1.91976666e-01, 2.37660214e-01,
          2.23233566e-01, 1.35984257e-01, 1.38689801e-01, 1.53702661e-01,
          1.45314679e-01, 1.28877610e-01, 1.02354549e-01, 1.68120578e-01,
          2.23233566e-01, 2.23233566e-01, 1.48555771e-01, 1.33535624e-01,
          1.82361096e-01, 1.63811341e-01, 1.23425357e-01, 1.11256301e-01,
          1.93631738e-01, 2.23233566e-01, 2.23233566e-01, 1.44364789e-01,
          1.12791777e-01, 1.31448492e-01, 1.26975134e-01, 1.15693457e-01,
          1.17749535e-01, 1.85169414e-01, 2.23233566e-01, 2.23233566e-01,
          1.33160338e-01, 1.58941254e-01, 1.74459025e-01, 1.17273271e-01,
          1.02762617e-01, 1.41814709e-01, 2.23233566e-01, 2.23233566e-01,
          2.29987845e-01, 1.58568233e-01, 9.50142667e-02, 1.38590604e-01,
          1.68257847e-01, 8.40205550e-02, 1.20947368e-01, 1.89950377e-01,
          2.29987845e-01, 2.29987845e-01, 1.50416315e-01, 1.06441900e-01,
          1.40543222e-01, 1.36373624e-01, 1.13006510e-01, 1.29257992e-01,
          1.85405508e-01, 2.29987845e-01, 2.29987845e-01, 1.21878095e-01,
          1.10018812e-01, 1.15735739e-01, 8.66567791e-02, 8.56981725e-02,
          1.89778283e-01, 2.29987845e-01, 2.29987845e-01, 2.29987845e-01,
          1.39812872e-01, 1.01944402e-01, 1.02521680e-01, 1.06889352e-01,
          1.07975677e-01, 1.95915475e-01, 2.29987845e-01, 2.29987845e-01,
          2.32703134e-01, 1.25093535e-01, 9.46559459e-02, 1.57178804e-01,
          1.30972981e-01, 1.41370088e-01, 1.14410959e-01, 1.39420256e-01,
          2.32703134e-01, 2.32703134e-01, 1.57862201e-01, 1.11639775e-01,
          1.12553373e-01, 1.60799503e-01, 1.37548760e-01, 1.09629296e-01,
          1.88230991e-01, 2.32703134e-01, 2.32703134e-01, 1.42028138e-01,
          8.99488479e-02, 1.07815787e-01, 1.05139077e-01, 1.07067615e-01,
          1.68335482e-01, 2.26078406e-01, 2.32703134e-01, 2.32703134e-01,
          1.75769448e-01, 1.03282675e-01, 9.77657810e-02, 1.51565298e-01,
          1.23768218e-01, 1.33399025e-01, 2.32703134e-01, 2.32703134e-01,
          2.32521757e-01, 1.47085279e-01, 1.12569660e-01, 9.88541991e-02,
          1.41351923e-01, 1.00151241e-01, 1.12257265e-01, 1.79009050e-01,
          2.32521757e-01, 2.32521757e-01, 1.46521464e-01, 1.23224147e-01,
          1.47658557e-01, 1.29491463e-01, 1.09317131e-01, 1.65108427e-01,
          2.11515650e-01, 2.32521757e-01, 2.32521757e-01, 1.60035804e-01,
          1.24442421e-01, 9.59226638e-02, 1.73982054e-01, 9.36928988e-02,
          9.37693641e-02, 1.87259957e-01, 2.32521757e-01, 2.32521757e-01,
          1.80080056e-01, 1.53574705e-01, 1.53321907e-01, 1.64054871e-01,
          7.34711438e-02, 1.43334389e-01, 1.47148892e-01, 2.32521757e-01,
          2.42317125e-01, 1.99859321e-01, 1.27633572e-01, 6.43796399e-02,
          7.61025846e-02, 7.23477975e-02, 1.33179024e-01, 1.91225350e-01,
          2.42317125e-01, 2.42317125e-01, 2.09121794e-01, 1.28873363e-01,
          1.15429953e-01, 5.01759350e-02, 5.22942245e-02, 1.38825387e-01,
          1.85060322e-01, 2.42317125e-01, 2.42317125e-01, 1.85219288e-01,
          1.24549061e-01, 7.96747729e-02, 7.22580105e-02, 4.54222709e-02,
          1.27754271e-01, 2.05149174e-01, 2.42317125e-01, 2.42317125e-01,
          2.37062886e-01, 1.37896851e-01, 1.10056005e-01, 7.86307380e-02,
          7.54463896e-02, 1.12205446e-01, 1.89848572e-01, 2.42317125e-01,
          2.37521961e-01, 1.90347940e-01, 1.16812356e-01, 9.38106626e-02,
          6.32705241e-02, 4.85003702e-02, 1.03716783e-01, 1.95065707e-01,
          2.37521961e-01, 2.37521961e-01, 2.12310776e-01, 8.78841877e-02,
          7.86600783e-02, 1.14784732e-01, 7.25777820e-02, 1.01329625e-01,
          2.21467778e-01, 2.37521961e-01, 2.37521961e-01, 1.89284205e-01,
          1.35377884e-01, 1.18786551e-01, 1.19794451e-01, 1.01247579e-01,
          8.36057812e-02, 1.87204421e-01, 2.37521961e-01, 2.37521961e-01,
          1.72080010e-01, 1.08227745e-01, 1.07487865e-01, 2.04006985e-01,
          1.16164997e-01, 1.08735949e-01, 2.02454314e-01, 2.37521961e-01,
          2.51981854e-01, 1.94606453e-01, 7.13702366e-02, 8.30435157e-02,
          1.01385541e-01, 6.10770658e-02, 1.12184867e-01, 1.97007969e-01,
          2.51981854e-01, 2.51981854e-01, 1.48054898e-01, 8.68211314e-02,
          9.91841927e-02, 8.68934169e-02, 8.12862590e-02, 1.22018710e-01,
          2.16770336e-01, 2.51981854e-01, 2.51981854e-01, 1.58813730e-01,
          9.07922834e-02, 9.30749625e-02, 1.62028655e-01, 7.88151473e-02,
          1.06654011e-01, 1.80031717e-01, 2.51981854e-01, 2.51981854e-01,
          1.74826548e-01, 1.33189991e-01, 1.26433238e-01, 9.78463665e-02,
          8.28964040e-02, 1.63529962e-01, 1.81841180e-01, 2.51981854e-01,
          2.33011469e-01, 1.51941940e-01, 1.22305632e-01, 9.41487029e-02,
          8.05660486e-02, 7.97575936e-02, 1.17293566e-01, 1.82156280e-01,
          2.33011469e-01, 2.33011469e-01, 1.40963584e-01, 1.64547846e-01,
          1.06954806e-01, 8.23189244e-02, 9.50631574e-02, 1.62326723e-01,
          2.18337208e-01, 2.33011469e-01, 2.33011469e-01, 1.94228321e-01,
          1.63964882e-01, 1.08781032e-01, 9.51559246e-02, 7.80955255e-02,
          1.60850659e-01, 1.82663292e-01, 2.33011469e-01, 2.33011469e-01,
          1.82262227e-01, 1.47617817e-01, 8.31493139e-02, 1.09912291e-01,
          1.11442670e-01, 1.68154240e-01, 2.07028508e-01, 2.33011469e-01,
          2.38955423e-01, 9.49025229e-02, 1.12980053e-01, 9.05286148e-02,
          8.06197301e-02, 1.01041101e-01, 1.65665701e-01, 2.38955423e-01,
          2.38955423e-01, 2.38955423e-01, 1.38043180e-01, 1.21381812e-01,
          8.51395875e-02, 8.68555829e-02, 1.34782612e-01, 1.75792396e-01,
          2.35206857e-01, 2.38955423e-01, 2.38955423e-01, 1.34122401e-01,
          8.85504261e-02, 7.67063722e-02, 9.66154784e-02, 9.51322168e-02,
          1.41884059e-01, 2.29282990e-01, 2.38955423e-01, 2.38955423e-01,
          1.71297640e-01, 9.46129784e-02, 6.81851953e-02, 7.91770667e-02,
          9.59386304e-02, 1.35290757e-01, 2.38955423e-01, 2.38955423e-01,
          2.33206019e-01, 1.65896595e-01, 9.75993723e-02, 5.92331961e-02,
          7.15052783e-02, 1.18792258e-01, 1.79393768e-01, 2.31956705e-01,
          2.33206019e-01, 2.33206019e-01, 1.77778974e-01, 8.76290649e-02,
          7.71284848e-02, 1.42257303e-01, 1.31018236e-01, 1.34990215e-01,
          2.33206019e-01, 2.33206019e-01, 2.33206019e-01, 1.62916720e-01,
          1.01280667e-01, 5.34871183e-02, 5.99487536e-02, 9.41163003e-02,
          1.22628242e-01, 2.20712274e-01, 2.33206019e-01, 2.33206019e-01,
          1.92872822e-01, 1.21564075e-01, 1.02418862e-01, 9.93190780e-02,
          9.63553637e-02, 1.22272648e-01, 2.21694857e-01, 2.33206019e-01,
          2.30292991e-01, 1.72967330e-01, 1.09857224e-01, 8.69626850e-02,
          1.54449403e-01, 1.04860157e-01, 8.31284225e-02, 1.77267551e-01,
          2.30292991e-01, 2.30292991e-01, 2.09050700e-01, 1.49741694e-01,
          1.21988811e-01, 1.35319859e-01, 7.42489323e-02, 1.35023147e-01,
          1.77523851e-01, 2.28617445e-01, 2.30292991e-01, 2.06235781e-01,
          1.35348573e-01, 1.06868580e-01, 1.04847759e-01, 8.63701850e-02,
          1.05753988e-01, 1.67962223e-01, 2.30292991e-01, 2.30292991e-01,
          2.30292991e-01, 1.32489502e-01, 1.02387950e-01, 1.13019682e-01,
          8.74630213e-02, 1.10579558e-01, 2.30292991e-01, 2.30292991e-01 ]
      - [ 1.32684022e-01, 1.35231405e-01, 1.50786728e-01, 1.22755557e-01,
          1.83594823e-01, 1.89000174e-01, 1.60685465e-01, 1.31920099e-01,
          9.98409688e-02, 1.59173831e-01, 1.54713899e-01, 1.59707308e-01,
          1.61620602e-01, 2.03648373e-01, 1.52160347e-01, 1.41698793e-01,
          1.62717521e-01, 1.15396135e-01, 1.71582729e-01, 1.67194918e-01,
          1.58025995e-01, 1.67535186e-01, 1.84747532e-01, 2.01100916e-01,
          1.67670816e-01, 1.34554312e-01, 1.63516968e-01, 1.73345134e-01,
          1.92635909e-01, 2.02313244e-01, 1.87316537e-01, 2.03648373e-01,
          2.03648373e-01, 2.02360332e-01, 1.90795407e-01, 1.21705376e-01,
          1.17880918e-01, 1.42363936e-01, 1.51818722e-01, 1.58205673e-01,
          2.01179728e-01, 1.21307798e-01, 1.28257602e-01, 1.55910581e-01,
          1.08012766e-01, 1.70520380e-01, 1.37263298e-01, 1.62558556e-01,
          1.89991802e-01, 2.05352902e-01, 1.79752320e-01, 1.69878051e-01,
          1.46869570e-01, 1.20658457e-01, 1.31316736e-01, 1.65055722e-01,
          2.05352902e-01, 2.05352902e-01, 1.92269206e-01, 1.68351158e-01,
          1.73335627e-01, 1.87375620e-01, 9.76500437e-02, 1.68665811e-01,
          1.59696847e-01, 2.05352902e-01, 2.05352902e-01, 2.05352902e-01,
          2.05352902e-01, 1.72148347e-01, 1.51315585e-01, 1.19140416e-01,
          1.66822627e-01, 1.14909165e-01, 1.45441264e-01, 1.86233118e-01,
          2.05003053e-01, 1.62486985e-01, 1.55502960e-01, 1.40766963e-01,
          1.10419720e-01, 1.49595559e-01, 1.46817133e-01, 1.66808382e-01,
          1.86532900e-01, 2.05003053e-01, 1.54003158e-01, 1.79953441e-01,
          1.45174295e-01, 1.31591335e-01, 1.50900111e-01, 1.33344933e-01,
          1.97176710e-01, 2.05003053e-01, 2.05003053e-01, 2.05003053e-01,
          1.49245143e-01, 1.39405608e-01, 1.11435004e-01, 1.57822490e-01,
          1.86005369e-01, 2.05003053e-01, 2.05003053e-01, 1.96155593e-01,
          1.70884266e-01, 1.36146992e-01, 1.43178210e-01, 1.53245628e-01,
          1.56056762e-01, 1.65853903e-01, 1.29152939e-01, 1.47264004e-01,
          1.85661003e-01, 1.50861621e-01, 1.63825020e-01, 1.27313390e-01,
          1.51652023e-01, 1.51686877e-01, 1.87335595e-01, 1.72103658e-01,
          1.34343371e-01, 1.83808908e-01, 1.49349794e-01, 1.51465029e-01,
          1.59055442e-01, 1.70656502e-01, 1.78558156e-01, 1.86489493e-01,
          2.01876506e-01, 2.01876506e-01, 1.88912600e-01, 1.42863333e-01,
          1.37607336e-01, 1.14913002e-01, 1.83720574e-01, 1.75005019e-01,
          1.58707395e-01, 1.87572181e-01, 1.92007452e-01, 1.80818290e-01,
          1.65997818e-01, 1.66117057e-01, 1.36799067e-01, 2.01660007e-01,
          1.36011213e-01, 1.68518737e-01, 1.79093152e-01, 1.66516766e-01,
          1.94092393e-01, 1.31342530e-01, 1.27988607e-01, 1.56360149e-01,
          1.56325996e-01, 1.44894630e-01, 1.60252944e-01, 1.42839909e-01,
          1.98756516e-01, 2.01628551e-01, 1.28685981e-01, 1.49113819e-01,
          1.44128442e-01, 1.67340234e-01, 1.35101631e-01, 1.31635189e-01,
          1.56116232e-01, 1.93754867e-01, 2.01628551e-01, 1.58717766e-01,
          1.59499943e-01, 1.57603800e-01, 2.01628551e-01, 1.32094219e-01,
          1.96326837e-01, 1.90733477e-01, 1.87698647e-01, 2.01628551e-01,
          1.75747707e-01, 1.53380185e-01, 1.36714906e-01, 2.01628551e-01,
          1.44177184e-01, 1.61773592e-01, 1.35522872e-01, 1.76662728e-01,
          1.73567981e-01, 1.49049088e-01, 1.11231543e-01, 1.16699442e-01,
          1.79359406e-01, 1.45823017e-01, 1.73305377e-01, 1.60363793e-01,
          1.88947976e-01, 1.72258094e-01, 1.73878387e-01, 1.46142319e-01,
          1.27839744e-01, 1.69641167e-01, 1.40851483e-01, 2.04090431e-01,
          2.04090431e-01, 2.04090431e-01, 1.83337703e-01, 1.73418358e-01,
          9.34057161e-02, 9.16917250e-02, 1.69308752e-01, 1.65827349e-01,
          2.01630428e-01, 2.03333229e-01, 2.04090431e-01, 1.80920586e-01,
          1.81368470e-01, 1.53717011e-01, 1.45277217e-01, 1.89809039e-01,
          1.54819742e-01, 1.49644405e-01, 1.63324565e-01, 1.45429432e-01,
          1.50373638e-01, 1.67989105e-01, 1.68161392e-01, 1.35649472e-01,
          1.59872815e-01, 1.89029396e-01, 1.41683906e-01, 1.56171158e-01,
          1.44302353e-01, 1.76523656e-01, 1.39557138e-01, 1.65406138e-01,
          1.44997731e-01, 1.48524344e-01, 1.48266882e-01, 1.46903560e-01,
          1.91718966e-01, 1.79705694e-01, 1.47470236e-01, 1.54676571e-01,
          1.82612658e-01, 1.68827638e-01, 2.01913238e-01, 1.45607144e-01,
          1.61949292e-01, 1.97725251e-01, 2.01511607e-01, 1.98857889e-01,
          1.49388552e-01, 1.85983345e-01, 1.82669222e-01, 2.01913238e-01,
          1.35532334e-01, 1.48314536e-01, 1.36582568e-01, 1.38658598e-01,
          1.78758085e-01, 2.01690033e-01, 1.75949946e-01, 1.06329329e-01,
          1.40942380e-01, 1.52586654e-01, 1.91800833e-01, 1.96787477e-01,
          1.45941243e-01, 2.01690033e-01, 1.94320068e-01, 1.76269472e-01,
          1.32305041e-01, 1.12836011e-01, 1.49053052e-01, 1.42772377e-01,
          1.60299554e-01, 1.55639842e-01, 1.92249730e-01, 2.01690033e-01,
          2.01690033e-01, 1.48013234e-01, 1.28239319e-01, 1.72526121e-01,
          1.57815382e-01, 1.86861560e-01, 1.45201132e-01, 2.01690033e-01,
          2.01690033e-01, 2.01690033e-01, 1.46724865e-01, 1.47328258e-01,
          1.39467835e-01, 1.58177584e-01, 2.02106625e-01, 1.67625546e-01,
          1.58632055e-01, 1.66830838e-01, 1.66954383e-01, 1.40394881e-01,
          1.07080959e-01, 1.17496930e-01, 1.40775979e-01, 2.02106625e-01,
          2.01813981e-01, 1.70534506e-01, 2.02106625e-01, 1.55005947e-01,
          1.18207365e-01, 1.17909417e-01, 1.90408647e-01, 1.47976682e-01,
          1.98899552e-01, 1.56145111e-01, 1.77383497e-01, 1.79575473e-01,
          1.83651194e-01, 1.42473474e-01, 1.45658225e-01, 1.72515273e-01,
          1.85824245e-01, 2.02106625e-01, 1.69113979e-01, 1.92553535e-01,
          2.02106625e-01, 1.49384141e-01, 1.49696156e-01, 1.34341508e-01,
          1.12794891e-01, 1.36052728e-01, 1.77627996e-01, 1.72142610e-01,
          1.55099481e-01, 2.02503428e-01, 1.30997479e-01, 1.11310318e-01,
          1.33201882e-01, 1.25044927e-01, 1.66539311e-01, 2.02503428e-01,
          1.70407847e-01, 1.54144838e-01, 2.02503428e-01, 1.32490292e-01,
          1.52551398e-01, 2.02503428e-01, 1.34369090e-01, 1.75472647e-01,
          1.79757103e-01, 1.51428446e-01, 1.76859811e-01, 1.96888611e-01,
          1.40159637e-01, 1.38054684e-01, 1.65643752e-01, 1.26706988e-01,
          2.02503428e-01, 1.94584787e-01, 1.59181908e-01, 2.02503428e-01,
          2.02503428e-01, 1.70042127e-01, 1.43893704e-01, 2.02503428e-01,
          1.17752567e-01, 1.49677426e-01, 2.03230143e-01, 1.77859753e-01,
          1.57895550e-01, 1.56866848e-01, 1.28799990e-01, 1.46321550e-01,
          1.74626991e-01, 1.28919899e-01, 1.59745231e-01, 1.91993698e-01,
          2.03191698e-01, 1.61348388e-01, 1.47808209e-01, 1.52309284e-01,
          1.36544928e-01, 1.36219308e-01, 1.13238350e-01, 1.79321229e-01,
          1.99087575e-01, 1.74472854e-01, 2.03230143e-01, 1.87867835e-01,
          1.65216550e-01, 1.40027508e-01, 1.45917505e-01, 1.40132055e-01,
          1.61399737e-01, 2.03230143e-01, 1.97449073e-01, 2.03230143e-01,
          1.74762532e-01, 1.86930045e-01, 1.91058561e-01, 1.14235990e-01,
          1.14983045e-01, 1.36626780e-01, 1.52837142e-01, 1.92678317e-01,
          1.67601496e-01, 1.37965113e-01, 1.42237872e-01, 1.43558294e-01,
          1.46252170e-01, 1.19705252e-01, 1.89175963e-01, 2.05936059e-01,
          1.80163875e-01, 1.99368298e-01, 1.41890705e-01, 1.48565888e-01,
          1.33166835e-01, 1.41425833e-01, 1.57126099e-01, 1.61610276e-01,
          2.05936059e-01, 2.05936059e-01, 1.86475635e-01, 1.70520842e-01,
          1.49361879e-01, 1.82865337e-01, 1.13385737e-01, 1.76107794e-01,
          1.73260078e-01, 2.05936059e-01, 2.05936059e-01, 2.05936059e-01,
          1.69050097e-01, 1.60718143e-01, 1.66477919e-01, 1.14347704e-01,
          1.11365207e-01, 2.06586465e-01, 2.06586465e-01, 2.04562232e-01,
          1.87726274e-01, 1.33908108e-01, 8.91326293e-02, 7.86573663e-02,
          1.05516076e-01, 1.50864601e-01, 1.76144987e-01, 2.06586465e-01,
          2.06586465e-01, 1.61493987e-01, 1.54006377e-01, 1.31488129e-01,
          1.07223071e-01, 1.45309567e-01, 1.59420878e-01, 1.69268399e-01,
          2.06586465e-01, 1.98386163e-01, 2.06586465e-01, 1.50590315e-01,
          1.42426059e-01, 1.22830682e-01, 1.05001666e-01, 1.70158684e-01,
          1.58203170e-01, 2.06586465e-01, 1.94897905e-01, 2.02683598e-01,
          1.99186757e-01, 1.94953114e-01, 1.50663614e-01, 1.30723298e-01,
          1.49309918e-01, 1.34646952e-01, 1.63236350e-01, 1.69843510e-01,
          1.47493586e-01, 1.47161126e-01, 1.46092117e-01, 1.19971000e-01,
          1.83312744e-01, 1.29105210e-01, 1.45518780e-01, 1.54004544e-01,
          1.91609442e-01, 1.83877274e-01, 1.63449436e-01, 1.41583532e-01,
          1.55961126e-01, 1.92541480e-01, 1.76440999e-01, 1.37185767e-01,
          1.63737476e-01, 1.59598783e-01, 1.80197790e-01, 1.87835112e-01,
          2.00913891e-01, 1.92361742e-01, 1.39608666e-01, 1.72603086e-01,
          1.45422816e-01, 1.74617290e-01, 1.74610198e-01, 1.89518720e-01,
          2.00139314e-01, 1.83685109e-01, 1.99300930e-01, 1.44503847e-01,
          1.25415146e-01, 1.16592906e-01, 1.54148996e-01, 1.62662670e-01,
          1.74926654e-01, 1.72581673e-01, 1.97154537e-01, 1.47018731e-01,
          1.33988023e-01, 1.26093104e-01, 1.13446698e-01, 1.78420126e-01,
          1.35553911e-01, 1.75218806e-01, 2.03398228e-01, 2.03398228e-01,
          1.69240847e-01, 1.56388924e-01, 1.39043212e-01, 1.28165305e-01,
          1.43820763e-01, 1.64972991e-01, 2.03398228e-01, 1.95012152e-01,
          2.03398228e-01, 1.62366316e-01, 1.48227245e-01, 1.62895754e-01,
          1.39290243e-01, 2.03398228e-01, 1.63287863e-01, 2.03398228e-01,
          1.79932490e-01, 2.01437935e-01, 1.57513604e-01, 1.67959601e-01,
          1.40766993e-01, 1.19533762e-01, 1.62246898e-01, 1.32547379e-01,
          1.78753749e-01, 1.82824478e-01, 1.77893385e-01, 1.48536325e-01,
          1.42133221e-01, 1.62598059e-01, 1.67298511e-01, 1.60547048e-01,
          1.42360851e-01, 2.00958133e-01, 1.96962044e-01, 1.55328140e-01,
          1.59399852e-01, 1.34152368e-01, 1.34797975e-01, 1.49591580e-01,
          1.88306242e-01, 1.57384723e-01, 1.87530145e-01, 1.62856147e-01,
          1.79822683e-01, 1.60115033e-01, 1.46107465e-01, 1.56101346e-01,
          1.82607457e-01, 2.00958133e-01, 1.81529075e-01, 2.00958133e-01,
          2.00958133e-01, 2.00958133e-01, 1.54934615e-01, 1.24629125e-01,
          1.23097919e-01, 1.41732305e-01, 1.40646726e-01, 1.53954938e-01,
          1.78129330e-01, 1.83228463e-01, 1.60150602e-01, 1.52284861e-01,
          1.32418096e-01, 1.28357247e-01, 1.76777169e-01, 1.87560678e-01,
          1.91541463e-01, 2.00756714e-01, 1.84495911e-01, 1.67534456e-01,
          1.39510825e-01, 1.35800511e-01, 1.34669289e-01, 1.49478570e-01,
          1.78339526e-01, 1.64945811e-01, 1.79895282e-01, 2.00756714e-01,
          1.99414358e-01, 1.37073636e-01, 1.27851173e-01, 1.60671473e-01,
          1.89296514e-01, 2.00756714e-01, 1.67838112e-01, 1.76117212e-01,
          1.82264000e-01, 1.87995285e-01, 1.44241646e-01, 1.73549816e-01,
          1.21832550e-01, 1.67403489e-01, 1.92976117e-01, 2.03432202e-01,
          2.03432202e-01, 1.53451979e-01, 1.53129339e-01, 1.14356324e-01,
          1.05306149e-01, 1.60203621e-01, 1.29909188e-01, 2.03432202e-01,
          1.88846901e-01, 1.70879439e-01, 1.27421856e-01, 1.81716532e-01,
          1.68925539e-01, 1.14518501e-01, 1.44431785e-01, 1.85199752e-01,
          2.03432202e-01, 2.03432202e-01, 1.88943669e-01, 1.47831827e-01,
          1.51858076e-01, 1.35627449e-01, 1.42117739e-01, 1.65218383e-01,
          1.50814846e-01, 2.03432202e-01, 2.03432202e-01, 2.03432202e-01,
          1.61747679e-01, 1.50423229e-01, 1.50926545e-01, 1.46049708e-01,
          1.64137870e-01, 1.21585324e-01, 2.01449439e-01, 1.75924093e-01,
          1.45312026e-01, 1.56924143e-01, 1.64434999e-01, 1.66314438e-01,
          1.14032306e-01, 1.85652494e-01, 1.42525226e-01, 1.85955614e-01,
          1.90853059e-01, 1.60368070e-01, 1.87604904e-01, 1.54878259e-01,
          1.44649878e-01, 1.14027418e-01, 1.84426621e-01, 1.26422346e-01,
          1.46639302e-01, 1.84705794e-01, 2.01449439e-01, 1.85912251e-01,
          1.54478654e-01, 1.40722975e-01, 1.54009297e-01, 2.01449439e-01,
          1.51441753e-01, 1.63578764e-01, 2.01449439e-01, 2.01449439e-01,
          1.72739044e-01, 1.32338017e-01, 1.47050098e-01, 1.95233971e-01,
          1.81372195e-01, 1.49966538e-01, 1.66512564e-01, 1.77680284e-01,
          1.65897161e-01, 1.62334681e-01, 1.40334249e-01, 1.06818192e-01,
          1.37990654e-01, 1.53983295e-01, 1.84346378e-01, 2.00737983e-01,
          1.91616118e-01, 1.64469719e-01, 1.54710501e-01, 1.72396466e-01,
          1.36940673e-01, 1.44992039e-01, 1.75220340e-01, 1.61003977e-01,
          1.52126119e-01, 1.98355570e-01, 1.89807072e-01, 1.58288538e-01,
          1.34039342e-01, 1.22792765e-01, 2.00737983e-01, 1.48711249e-01,
          2.00737983e-01, 1.99671760e-01, 1.83788374e-01, 1.82120308e-01,
          1.58306032e-01, 1.77117303e-01, 1.29082248e-01, 1.68076038e-01,
          1.56882390e-01, 1.69138595e-01, 1.74603224e-01, 1.63413763e-01,
          1.49305120e-01, 1.44699544e-01, 1.94806427e-01, 1.74382538e-01,
          1.22846894e-01, 1.88974932e-01, 1.53499961e-01, 1.58426642e-01,
          1.32713079e-01, 1.66196540e-01, 1.89583629e-01, 1.90184280e-01,
          1.90137997e-01, 1.18088715e-01, 1.64676428e-01, 2.00068042e-01,
          1.90628245e-01, 1.48867249e-01, 1.85167909e-01, 1.51999176e-01,
          1.51105672e-01, 1.33969381e-01, 1.43956229e-01, 1.91281065e-01,
          1.98921487e-01, 1.57658458e-01, 1.02280557e-01, 1.71121612e-01,
          1.87645808e-01, 1.82438180e-01, 1.93725377e-01, 1.33304298e-01 ]
      - [ 1.08667962e-01, 1.62919294e-02, 1.86833143e-02, 3.69615071e-02,
          3.01172912e-01, 3.80880237e-02, 6.90539032e-02, 4.94983904e-02,
          1.27152219e-01, 7.04817623e-02, 1.82650350e-02, 1.54111357e-02,
          1.90918949e-02, 5.88703863e-02, 2.14524064e-02, 5.08562401e-02,
          4.21415456e-02, 8.71417746e-02, 3.09919834e-01, 3.17442454e-02,
          5.57249896e-02, 4.67551164e-02, 3.09919834e-01, 6.96574748e-02,
          3.09919834e-01, 2.12878451e-01, 3.09919834e-01, 3.09919834e-01,
          2.80471947e-02, 3.35649364e-02, 2.67647170e-02, 1.70037866e-01,
          2.19033677e-02, 3.09919834e-01, 2.91451275e-01, 3.09919834e-01,
          7.58905113e-02, 2.68210322e-02, 2.33454518e-02, 4.75657210e-02,
          3.36030215e-01, 5.98782487e-02, 4.41732071e-02, 4.12258506e-02,
          8.27128664e-02, 1.77478641e-01, 2.79592425e-02, 3.64715159e-02,
          6.15332238e-02, 3.36030215e-01, 5.85847907e-02, 1.40396789e-01,
          6.52611032e-02, 1.79257199e-01, 3.36030215e-01, 6.24218844e-02,
          7.92071372e-02, 7.96778947e-02, 3.36030215e-01, 7.69488066e-02,
          2.60984629e-01, 1.99720114e-01, 3.36030215e-01, 1.43064171e-01,
          5.09613678e-02, 6.50020763e-02, 7.57182464e-02, 3.36030215e-01,
          8.89878422e-02, 6.43572286e-02, 4.53075618e-02, 1.45845369e-01,
          2.54139513e-01, 1.18340552e-02, 2.66113430e-02, 1.42748933e-02,
          9.03269798e-02, 1.28369052e-02, 1.87946811e-01, 1.05997592e-01,
          2.61610061e-01, 2.61610061e-01, 3.16088982e-02, 5.56374304e-02,
          3.45680341e-02, 2.61610061e-01, 4.51152362e-02, 2.25466937e-01,
          1.44644544e-01, 2.61610061e-01, 2.61610061e-01, 3.50935385e-02,
          5.61837628e-02, 2.74418332e-02, 1.20194606e-01, 3.15575227e-02,
          1.28068805e-01, 1.11206628e-01, 2.61610061e-01, 2.61610061e-01,
          7.36384392e-02, 9.26274583e-02, 4.33665738e-02, 2.61610061e-01,
          7.25196004e-02, 2.47275561e-01, 2.24015579e-01, 2.61610061e-01,
          1.87998176e-01, 3.46696116e-02, 7.10429251e-02, 1.38698369e-01,
          3.65730971e-01, 1.40500501e-01, 1.03484698e-01, 6.70226216e-02,
          2.13020086e-01, 4.26234789e-02, 2.25914679e-02, 4.62978072e-02,
          9.44457874e-02, 3.65730971e-01, 8.93032700e-02, 4.95447777e-02,
          3.83330882e-02, 4.85713519e-02, 2.38176405e-01, 6.08788952e-02,
          8.58164802e-02, 1.33574232e-01, 3.65730971e-01, 1.73578054e-01,
          1.47657335e-01, 1.16164535e-01, 2.79576778e-01, 9.49209556e-02,
          3.11340205e-02, 5.09000644e-02, 1.00608431e-01, 3.65730971e-01,
          1.10042505e-01, 1.03983022e-01, 7.87062868e-02, 1.07110642e-01,
          1.47717178e-01, 3.84578779e-02, 5.77884614e-02, 3.14193405e-02,
          9.06549096e-02, 3.71343791e-02, 1.45245016e-01, 1.06509365e-01,
          1.63278803e-01, 1.69798851e-01, 3.03420126e-02, 3.79846990e-02,
          3.79523374e-02, 2.43560955e-01, 5.36980294e-02, 9.37637165e-02,
          7.67872408e-02, 1.79862648e-01, 2.79275268e-01, 6.65007383e-02,
          9.27755162e-02, 5.63970618e-02, 2.32622340e-01, 6.68027103e-02,
          2.79275268e-01, 2.79275268e-01, 2.79275268e-01, 2.79275268e-01,
          5.66482767e-02, 9.83616710e-02, 5.58793917e-02, 2.79275268e-01,
          9.45648924e-02, 2.57561952e-01, 2.16726065e-01, 2.79275268e-01,
          1.57071963e-01, 2.66854856e-02, 5.32423370e-02, 4.88742441e-02,
          3.25078130e-01, 4.99185100e-02, 2.56066658e-02, 2.09827479e-02,
          1.66152731e-01, 2.15416953e-01, 3.11781857e-02, 7.96241164e-02,
          5.42149693e-02, 3.25078130e-01, 4.47613560e-02, 4.74743135e-02,
          2.52707191e-02, 2.00892374e-01, 2.68345803e-01, 3.58091630e-02,
          9.09057781e-02, 5.45920171e-02, 3.25078130e-01, 7.11582825e-02,
          5.16457297e-02, 3.70537043e-02, 2.86421537e-01, 3.25078130e-01,
          3.42662148e-02, 1.07019447e-01, 5.73125258e-02, 3.25078130e-01,
          5.94704747e-02, 5.73874153e-02, 2.38069575e-02, 3.25078130e-01,
          2.37725422e-01, 2.30970308e-02, 6.75217435e-02, 3.04985326e-02,
          2.78145432e-01, 2.79599410e-02, 2.62452569e-02, 2.70631239e-02,
          2.00682804e-01, 2.78145432e-01, 1.36162490e-01, 2.78145432e-01,
          5.21018989e-02, 2.78145432e-01, 4.89916652e-02, 5.36127351e-02,
          7.03346804e-02, 2.78145432e-01, 2.04496413e-01, 2.26860140e-02,
          4.91044074e-02, 3.01579237e-02, 2.78145432e-01, 3.50814089e-02,
          2.99740583e-02, 2.28615906e-02, 1.91631332e-01, 2.78145432e-01,
          1.26901045e-01, 1.80562004e-01, 4.83733453e-02, 2.78145432e-01,
          6.54547438e-02, 1.02611542e-01, 1.16443209e-01, 2.78145432e-01,
          2.77959466e-01, 3.49739119e-02, 5.27854115e-02, 2.13829689e-02,
          1.55431598e-01, 3.04796584e-02, 2.13763043e-01, 1.39183849e-01,
          2.77959466e-01, 2.77959466e-01, 3.67576815e-02, 4.67489213e-02,
          3.15787643e-02, 1.37291938e-01, 1.11030415e-02, 2.77959466e-01,
          2.58112222e-01, 2.77959466e-01, 1.36304393e-01, 3.17179374e-02,
          5.79046570e-02, 1.97449531e-02, 1.40276939e-01, 1.68151688e-02,
          1.58157155e-01, 9.04996842e-02, 1.76234215e-01, 2.77959466e-01,
          4.99599688e-02, 7.76733756e-02, 3.97632606e-02, 1.46261916e-01,
          1.35248210e-02, 2.77959466e-01, 2.34829634e-01, 2.77959466e-01,
          2.77646512e-01, 5.51690049e-02, 8.09699148e-02, 7.57653415e-02,
          2.77646512e-01, 3.70947719e-02, 2.13859171e-01, 1.80218145e-01,
          2.77646512e-01, 9.09767151e-02, 3.40525508e-02, 4.29531485e-02,
          4.72816825e-02, 2.77646512e-01, 4.19836268e-02, 3.87128070e-02,
          2.75005475e-02, 8.22394118e-02, 2.77646512e-01, 6.55276775e-02,
          1.21273518e-01, 9.25652087e-02, 2.77646512e-01, 3.93886343e-02,
          2.12101862e-01, 1.62251145e-01, 2.77646512e-01, 2.40420058e-01,
          5.01830466e-02, 1.07366778e-01, 5.68512231e-02, 2.77646512e-01,
          4.39572781e-02, 9.34105590e-02, 7.43784755e-02, 2.63805300e-01,
          2.17333570e-01, 3.58455665e-02, 4.20493260e-02, 2.27838848e-02,
          9.84217301e-02, 2.40627937e-02, 1.20562583e-01, 8.38714913e-02,
          2.44351715e-01, 2.62429565e-01, 5.28691933e-02, 7.16543719e-02,
          3.21253128e-02, 2.62429565e-01, 5.28423712e-02, 2.48772636e-01,
          1.72112554e-01, 2.62429565e-01, 2.62429565e-01, 4.24931608e-02,
          7.24948794e-02, 1.96337458e-02, 1.00038752e-01, 1.84705742e-02,
          1.94850609e-01, 1.59189671e-01, 2.62429565e-01, 2.62429565e-01,
          4.08829749e-02, 7.83791766e-02, 3.09769195e-02, 2.60159463e-01,
          4.20944393e-02, 2.62429565e-01, 2.03658253e-01, 2.62429565e-01,
          1.65247247e-01, 3.38326320e-02, 5.64662814e-02, 8.34808573e-02,
          3.43474150e-01, 1.53032213e-01, 1.52070940e-01, 8.89926106e-02,
          2.00862527e-01, 1.01788498e-01, 2.44047847e-02, 3.96122597e-02,
          6.74192682e-02, 3.43474150e-01, 1.04093820e-01, 6.43462166e-02,
          4.01287824e-02, 1.02969863e-01, 2.08542079e-01, 2.49741338e-02,
          5.97742386e-02, 9.99039114e-02, 3.43474150e-01, 1.52475134e-01,
          2.07271233e-01, 9.62785706e-02, 2.39359647e-01, 2.07944274e-01,
          1.83864012e-02, 4.15183567e-02, 7.37775341e-02, 3.43474150e-01,
          1.00365095e-01, 1.63974613e-01, 8.28004405e-02, 2.48976097e-01,
          2.52266347e-01, 3.22747007e-02, 5.71597964e-02, 2.95606293e-02,
          1.60712674e-01, 2.99066454e-02, 1.62424892e-01, 1.32271275e-01,
          2.52266347e-01, 2.52266347e-01, 2.65429486e-02, 5.30250371e-02,
          3.36304456e-02, 2.52266347e-01, 4.17082012e-02, 1.79902628e-01,
          1.46705270e-01, 2.52266347e-01, 2.52266347e-01, 2.97090467e-02,
          6.07870556e-02, 2.22246088e-02, 1.45905763e-01, 2.00745109e-02,
          2.52266347e-01, 2.00122535e-01, 2.52266347e-01, 2.52266347e-01,
          4.05159704e-02, 5.77296019e-02, 4.34713066e-02, 2.50571162e-01,
          3.07123717e-02, 2.20287979e-01, 1.97753489e-01, 2.52266347e-01,
          1.97547495e-01, 2.51241028e-02, 5.49494103e-02, 4.37590852e-02,
          3.37781549e-01, 5.75562641e-02, 8.71190876e-02, 5.48320077e-02,
          2.15618804e-01, 2.69350976e-01, 2.13425066e-02, 5.37570305e-02,
          3.81450914e-02, 3.37781549e-01, 5.17776012e-02, 7.73174986e-02,
          2.67107226e-02, 2.75311142e-01, 1.95267305e-01, 4.31181155e-02,
          7.22633377e-02, 6.43064752e-02, 3.37781549e-01, 5.63808642e-02,
          9.75012928e-02, 8.46508518e-02, 2.11679637e-01, 2.53200442e-01,
          4.21429016e-02, 8.94936547e-02, 5.97662516e-02, 3.37781549e-01,
          5.21327816e-02, 7.86163285e-02, 6.03614561e-02, 2.62135327e-01,
          1.80829599e-01, 2.32204720e-02, 4.46497165e-02, 2.08058152e-02,
          3.07423472e-01, 2.96346266e-02, 2.61132047e-02, 1.51530774e-02,
          1.79644406e-01, 3.07423472e-01, 1.02371804e-01, 1.01548910e-01,
          3.77014838e-02, 2.46668696e-01, 3.74734513e-02, 6.72320426e-02,
          9.33208317e-02, 3.07423472e-01, 3.07423472e-01, 4.16498184e-02,
          8.42711851e-02, 2.50729527e-02, 3.07423472e-01, 2.22247150e-02,
          4.18648981e-02, 3.50691229e-02, 3.07423472e-01, 3.07423472e-01,
          9.25464034e-02, 8.96258056e-02, 3.24652307e-02, 1.77813768e-01,
          3.01095210e-02, 4.84838299e-02, 8.92602876e-02, 3.07423472e-01,
          2.24854976e-01, 5.83440103e-02, 1.29714817e-01, 5.66786379e-02,
          3.00331920e-01, 5.40551730e-02, 2.75862515e-01, 1.66037574e-01,
          2.55302399e-01, 3.00331920e-01, 8.31801817e-02, 1.50718436e-01,
          9.14295539e-02, 2.49757394e-01, 4.08659838e-02, 3.00331920e-01,
          3.00331920e-01, 3.00331920e-01, 1.64571434e-01, 3.52393202e-02,
          4.64107618e-02, 5.36689274e-02, 3.00331920e-01, 5.07033169e-02,
          4.85482849e-02, 4.23066504e-02, 1.51470050e-01, 5.98241575e-02,
          3.63643281e-02, 3.96424681e-02, 5.55295758e-02, 1.52413025e-01,
          4.80034165e-02, 5.03134876e-02, 5.31033054e-02, 6.72732070e-02,
          3.10422033e-01, 6.27103448e-02, 1.28483891e-01, 1.32954791e-01,
          3.10422033e-01, 7.12949783e-02, 1.40221611e-01, 1.06426492e-01,
          3.10422033e-01, 2.81060785e-01, 6.46671429e-02, 1.40175402e-01,
          1.00734860e-01, 3.10422033e-01, 8.90943184e-02, 1.35055885e-01,
          1.28977776e-01, 3.10422033e-01, 3.16839255e-02, 3.65121923e-02,
          6.55767918e-02, 1.14472345e-01, 3.10422033e-01, 1.26406938e-01,
          3.20666023e-02, 3.68361585e-02, 3.46988030e-02, 5.00631779e-02,
          4.43293490e-02, 7.19980821e-02, 1.08198009e-01, 3.10422033e-01,
          1.41482055e-01, 7.01392516e-02, 6.05329648e-02, 5.58308698e-02,
          2.60162413e-01, 3.64162587e-02, 6.01152927e-02, 1.44454762e-02,
          1.03655860e-01, 3.21910419e-02, 2.25439727e-01, 2.30925426e-01,
          2.60162413e-01, 2.60162413e-01, 6.51126429e-02, 8.81225467e-02,
          3.53192464e-02, 2.60162413e-01, 6.72959536e-02, 2.60162413e-01,
          2.60162413e-01, 2.60162413e-01, 1.37459263e-01, 2.25042235e-02,
          2.07262170e-02, 1.03996927e-02, 7.33366758e-02, 2.88815852e-02,
          1.61760345e-01, 1.42409205e-01, 1.84441105e-01, 2.57159859e-01,
          6.31301701e-02, 7.22607747e-02, 4.70130295e-02, 2.28539333e-01,
          6.19693212e-02, 1.90815061e-01, 2.01041162e-01, 2.60162413e-01,
          2.20597774e-01, 4.86939661e-02, 8.02800581e-02, 1.08781859e-01,
          3.20579618e-01, 1.71521008e-01, 1.60454750e-01, 9.73986536e-02,
          2.55116820e-01, 2.83245742e-01, 1.06137916e-02, 2.45884713e-02,
          6.65012300e-02, 3.20579618e-01, 9.71089974e-02, 2.16660962e-01,
          1.13839544e-01, 3.20579618e-01, 1.15045033e-01, 5.33691570e-02,
          8.33298489e-02, 1.34208545e-01, 3.20579618e-01, 1.45151436e-01,
          8.47214311e-02, 6.14172406e-02, 1.45524621e-01, 8.02596807e-02,
          1.31508689e-02, 2.34926213e-02, 7.37047195e-02, 3.20579618e-01,
          7.62330741e-02, 7.31488168e-02, 3.52936015e-02, 9.97466370e-02,
          2.90925354e-01, 2.86025610e-02, 4.14357148e-02, 2.08148751e-02,
          1.29100338e-01, 2.16604229e-02, 2.90925354e-01, 2.90925354e-01,
          2.90925354e-01, 2.90925354e-01, 5.43817692e-02, 7.32927248e-02,
          5.97527027e-02, 2.90925354e-01, 4.72905338e-02, 2.55984366e-01,
          2.11956635e-01, 2.90925354e-01, 1.69436276e-01, 1.67006813e-02,
          1.58814136e-02, 1.45820286e-02, 3.57832834e-02, 1.60346776e-02,
          1.10955939e-01, 8.07350948e-02, 2.13798627e-01, 1.91377729e-01,
          2.31244713e-02, 2.91731805e-02, 2.96425093e-02, 2.61173218e-01,
          3.49024832e-02, 7.19015822e-02, 5.38809299e-02, 2.19121620e-01,
          2.29973614e-01, 6.64374754e-02, 1.21366121e-01, 6.74101487e-02,
          3.40337396e-01, 6.21147640e-02, 6.86537623e-02, 6.69527501e-02,
          2.53633529e-01, 2.69489467e-01, 8.16961974e-02, 1.76747799e-01,
          6.62763193e-02, 3.40337396e-01, 5.58195934e-02, 5.41598499e-02,
          7.15007335e-02, 2.78758198e-01, 1.67496651e-01, 3.07370033e-02,
          5.91512024e-02, 3.80142368e-02, 3.40337396e-01, 5.17374612e-02,
          2.25721598e-02, 2.15655547e-02, 1.85240582e-01, 2.06160247e-01,
          3.85483205e-02, 9.14435014e-02, 4.58926409e-02, 3.40337396e-01,
          4.80835550e-02, 2.24516224e-02, 2.32221205e-02, 2.14013815e-01,
          3.08215141e-01, 3.51823010e-02, 6.69513568e-02, 2.40205470e-02,
          3.08215141e-01, 2.17651483e-02, 3.77259851e-02, 3.83376032e-02,
          2.96480536e-01, 3.08215141e-01, 6.90322891e-02, 5.70409000e-02,
          2.93333139e-02, 1.93799376e-01, 5.17918356e-02, 4.32415158e-02,
          6.04679845e-02, 3.08215141e-01, 2.03029811e-01, 2.72567570e-02,
          6.45991713e-02, 2.99139954e-02, 3.08215141e-01, 2.57006828e-02,
          1.73138604e-02, 1.60797909e-02, 1.90298319e-01, 3.08215141e-01,
          7.98263252e-02, 1.07860446e-01, 4.76456545e-02, 2.49480933e-01,
          6.48044348e-02, 7.81619549e-02, 4.94280159e-02, 3.08215141e-01 ]
      - [ 6.12994805e-02, 6.07458204e-02, 1.59335822e-01, 1.29408583e-01,
          2.83027858e-01, 9.91501212e-02, 9.70719457e-02, 3.94034050e-02,
          9.15185064e-02, 9.12325904e-02, 1.16046719e-01, 2.83027858e-01,
          2.56081700e-01, 2.83027858e-01, 1.99984461e-01, 1.99274898e-01,
          5.42160831e-02, 1.65684491e-01, 4.40798067e-02, 5.81245162e-02,
          1.50159612e-01, 1.13144167e-01, 2.83027858e-01, 9.15522501e-02,
          9.37585384e-02, 4.95275110e-02, 7.88299367e-02, 5.14606275e-02,
          9.56841037e-02, 2.83027858e-01, 2.23865032e-01, 2.83027858e-01,
          2.11468920e-01, 2.03775913e-01, 7.30482489e-02, 1.42499954e-01,
          1.74301594e-01, 1.73228338e-01, 2.71157593e-01, 2.71157593e-01,
          2.71157593e-01, 2.26266339e-01, 2.15017751e-01, 8.61188471e-02,
          2.18161419e-01, 1.27002984e-01, 9.23729911e-02, 1.07913487e-01,
          7.71896914e-02, 1.02695093e-01, 6.22539595e-02, 6.35893419e-02,
          7.65273347e-02, 1.26705855e-01, 9.32763293e-02, 1.42377868e-01,
          2.71157593e-01, 2.61086553e-01, 2.71157593e-01, 2.52235353e-01,
          2.40328714e-01, 9.86417010e-02, 1.71996191e-01, 1.09201297e-01,
          1.04053825e-01, 1.00839265e-01, 8.74102265e-02, 9.49202329e-02,
          7.36943111e-02, 7.49021247e-02, 6.40089139e-02, 1.07915185e-01,
          3.79820541e-02, 3.50863300e-02, 3.74079645e-02, 2.79834960e-02,
          6.34134263e-02, 3.15230787e-02, 2.21530925e-02, 2.48119868e-02,
          3.61949950e-02, 1.50540099e-01, 1.96097866e-01, 2.22886011e-01,
          1.93025172e-01, 3.14792663e-01, 2.71978348e-01, 3.14792663e-01,
          1.36022687e-01, 7.35308230e-02, 4.42719348e-02, 3.63842770e-02,
          4.19845544e-02, 3.52336392e-02, 6.95412233e-02, 3.49925607e-02,
          2.11666487e-02, 2.44483426e-02, 4.04223576e-02, 1.26553923e-01,
          1.87668040e-01, 2.89096415e-01, 2.67235488e-01, 3.14792663e-01,
          3.14792663e-01, 3.14792663e-01, 1.09942928e-01, 9.90850925e-02,
          1.22905917e-01, 1.74022093e-01, 2.31093749e-01, 2.13250712e-01,
          2.99517870e-01, 2.26904914e-01, 2.99517870e-01, 1.40268117e-01,
          8.46315995e-02, 5.66157475e-02, 3.56885120e-02, 4.22483422e-02,
          5.68315387e-02, 1.67607114e-01, 4.14373651e-02, 4.75812666e-02,
          3.55636850e-02, 7.67260268e-02, 1.02204233e-01, 1.63134962e-01,
          2.86695898e-01, 2.84092009e-01, 2.99517870e-01, 2.72310972e-01,
          2.99517870e-01, 1.14548832e-01, 1.05045423e-01, 5.69382235e-02,
          3.80630307e-02, 4.50995862e-02, 6.80623651e-02, 2.13267162e-01,
          4.61967848e-02, 6.15131781e-02, 3.81841809e-02, 6.60643652e-02,
          1.43087670e-01, 2.16225032e-02, 1.55803021e-02, 2.70750932e-02,
          1.69428378e-01, 3.30089182e-02, 4.41862047e-02, 2.31624078e-02,
          1.62426040e-01, 3.38813961e-01, 2.15578750e-02, 1.64229274e-02,
          2.18543615e-02, 1.08112298e-01, 3.48028913e-02, 4.37242538e-02,
          2.84884386e-02, 3.38813961e-01, 3.21688294e-01, 2.32809577e-02,
          1.49385529e-02, 3.47736180e-02, 3.27141374e-01, 4.82585356e-02,
          8.91253576e-02, 3.32134739e-02, 3.38813961e-01, 3.38813961e-01,
          4.49910313e-02, 3.67952920e-02, 4.74347360e-02, 2.80209988e-01,
          6.11883700e-02, 9.79046151e-02, 6.23822585e-02, 3.38813961e-01,
          2.83128679e-01, 2.34006755e-02, 2.21670512e-02, 1.57931801e-02,
          3.40999402e-02, 2.78550778e-02, 2.65722517e-02, 2.77102534e-02,
          2.92589128e-01, 3.15426052e-01, 3.34072784e-02, 3.56823429e-02,
          2.98193227e-02, 6.44157007e-02, 3.77431922e-02, 5.52146696e-02,
          4.64268848e-02, 3.08645427e-01, 3.59247923e-01, 7.67389536e-02,
          7.27873743e-02, 5.15540652e-02, 1.40917391e-01, 5.41896820e-02,
          8.11280310e-02, 1.06173113e-01, 3.59247923e-01, 3.59247923e-01,
          8.55672807e-02, 8.59746262e-02, 4.85235453e-02, 8.93404484e-02,
          4.38773856e-02, 8.90473425e-02, 1.07206985e-01, 3.59247923e-01,
          3.00554872e-01, 6.83762655e-02, 7.48943761e-02, 7.42225349e-02,
          1.81249946e-01, 4.75370549e-02, 6.76769689e-02, 5.60109951e-02,
          2.83819586e-01, 1.02461956e-01, 5.75692840e-02, 6.32352307e-02,
          8.80680680e-02, 2.57678539e-01, 8.63433406e-02, 5.07984236e-02,
          4.20262143e-02, 8.91260952e-02, 3.00554872e-01, 1.68456525e-01,
          2.17710137e-01, 1.08962730e-01, 3.00554872e-01, 1.00070879e-01,
          1.75795555e-01, 1.45260468e-01, 3.00554872e-01, 1.81395039e-01,
          1.04013965e-01, 1.61814511e-01, 1.10143863e-01, 3.00554872e-01,
          1.10064678e-01, 1.33953050e-01, 1.01526275e-01, 1.49576277e-01,
          3.68185528e-02, 4.02066559e-02, 6.90590069e-02, 1.31924674e-01,
          3.50564063e-01, 8.62082168e-02, 4.80583310e-02, 4.37388346e-02,
          5.78209125e-02, 3.94620523e-02, 6.14781603e-02, 1.41892329e-01,
          2.54219413e-01, 3.50564063e-01, 1.92859396e-01, 9.80552286e-02,
          6.49321154e-02, 1.07844584e-01, 3.52216773e-02, 4.17912565e-02,
          3.47614512e-02, 1.81023434e-01, 3.50564063e-01, 1.51388004e-01,
          3.35198678e-02, 2.90287063e-02, 2.54574884e-02, 4.06702571e-02,
          7.50618577e-02, 6.23398572e-02, 3.50564063e-01, 3.50564063e-01,
          3.33514839e-01, 4.70519178e-02, 2.67184079e-02, 3.59482765e-02,
          7.40608424e-02, 1.02260895e-01, 1.69601187e-01, 2.55418330e-01,
          3.33716840e-01, 2.18728736e-01, 1.44475073e-01, 1.04021028e-01,
          1.54020593e-01, 9.56747308e-02, 9.42865014e-02, 6.29165173e-02,
          6.86373860e-02, 7.74987042e-02, 6.56000376e-02, 7.35364854e-02,
          7.82158896e-02, 9.04593170e-02, 1.22330256e-01, 1.30005166e-01,
          1.14061981e-01, 3.33716840e-01, 3.33716840e-01, 3.33716840e-01,
          9.73184630e-02, 8.45860168e-02, 1.24874011e-01, 2.67946303e-01,
          1.10345274e-01, 8.91747028e-02, 9.03637409e-02, 1.11583292e-01,
          7.11881071e-02, 8.45425501e-02, 1.13056436e-01, 2.58130699e-01,
          3.67357694e-02, 3.02806776e-02, 2.64708977e-02, 2.71904469e-02,
          5.28959483e-02, 2.94935070e-02, 2.38384623e-02, 2.96721086e-02,
          3.20613720e-02, 1.31088331e-01, 1.65756360e-01, 2.93227881e-01,
          2.40503937e-01, 2.93227881e-01, 2.86328852e-01, 2.93227881e-01,
          8.96333754e-02, 1.49774879e-01, 7.36159608e-02, 3.66756693e-02,
          2.92530581e-02, 2.60016508e-02, 5.88729605e-02, 3.20848934e-02,
          3.32114697e-02, 4.21448462e-02, 7.55257159e-02, 1.06666729e-01,
          2.09770620e-01, 2.93227881e-01, 2.09961653e-01, 2.93227881e-01,
          2.93227881e-01, 2.93227881e-01, 9.18841809e-02, 2.02744231e-01,
          1.11169510e-01, 1.52460590e-01, 2.86058068e-01, 2.63628423e-01,
          2.86058068e-01, 2.40761459e-01, 2.86058068e-01, 7.97518566e-02,
          1.71290100e-01, 5.08936159e-02, 4.47982848e-02, 6.52941391e-02,
          7.01122731e-02, 1.36287674e-01, 3.36804129e-02, 3.78160439e-02,
          2.54943948e-02, 5.73639348e-02, 8.68214369e-02, 2.02459544e-01,
          2.86058068e-01, 2.26940349e-01, 2.86058068e-01, 2.86058068e-01,
          2.64860660e-01, 8.25788751e-02, 2.31349602e-01, 3.91878597e-02,
          5.50658591e-02, 8.30602944e-02, 6.37316257e-02, 1.21481098e-01,
          3.83215286e-02, 4.04445268e-02, 3.18364650e-02, 6.01172633e-02,
          3.29738468e-01, 6.64622113e-02, 4.67257723e-02, 7.66798630e-02,
          2.61449844e-01, 6.83988109e-02, 9.78910998e-02, 5.31011708e-02,
          3.29738468e-01, 3.29738468e-01, 1.11028887e-01, 8.15490410e-02,
          1.25474706e-01, 3.29738468e-01, 1.63713053e-01, 2.32765973e-01,
          2.05545545e-01, 3.29738468e-01, 7.06209093e-02, 7.36770034e-02,
          6.67226315e-02, 6.72001243e-02, 5.91864921e-02, 5.43491244e-02,
          5.62479347e-02, 5.00692576e-02, 6.04526848e-02, 1.23155758e-01,
          1.22509733e-01, 1.75289288e-01, 1.11549713e-01, 1.81865275e-01,
          1.15914188e-01, 1.32120922e-01, 1.26585096e-01, 9.32558477e-02,
          3.01750273e-01, 5.26307710e-02, 4.95359078e-02, 4.97268550e-02,
          1.39688730e-01, 7.11099729e-02, 1.64908797e-01, 1.91590875e-01,
          3.01750273e-01, 3.01750273e-01, 1.18668668e-01, 9.41889137e-02,
          3.78339626e-02, 6.03790283e-02, 4.03513126e-02, 1.33456782e-01,
          1.76393762e-01, 3.01750273e-01, 2.07942694e-01, 1.10010780e-01,
          1.65038407e-01, 5.08693159e-02, 8.78261626e-02, 4.40488942e-02,
          1.11007638e-01, 1.14437349e-01, 1.76098675e-01, 3.01750273e-01,
          1.69776991e-01, 1.74487978e-01, 4.48157117e-02, 9.34402123e-02,
          3.47847939e-02, 1.56250745e-01, 1.70375496e-01, 3.01750273e-01,
          2.87527800e-01, 2.87527800e-01, 2.87527800e-01, 7.57426396e-02,
          1.81551173e-01, 5.91207556e-02, 1.06208473e-01, 1.06521793e-01,
          2.87527800e-01, 1.15537390e-01, 1.24438070e-01, 1.97500050e-01,
          7.44351447e-02, 2.28415951e-01, 6.40931576e-02, 7.46939480e-02,
          6.99261501e-02, 8.44323710e-02, 2.87527800e-01, 2.08907351e-01,
          1.74224481e-01, 5.76774254e-02, 1.14435978e-01, 6.36099577e-02,
          2.55438983e-01, 2.20428124e-01, 2.87527800e-01, 8.05285797e-02,
          7.64598474e-02, 9.24318880e-02, 4.82980758e-02, 1.33696094e-01,
          6.21263161e-02, 1.35710925e-01, 9.11748335e-02, 9.50715542e-02,
          2.39369515e-02, 3.39700133e-02, 4.27890383e-02, 1.27393737e-01,
          3.26719403e-01, 1.94138944e-01, 6.03284612e-02, 2.16844231e-02,
          1.46223074e-02, 2.68314090e-02, 4.94553968e-02, 7.60677010e-02,
          2.53122598e-01, 3.26719403e-01, 3.26719403e-01, 1.01319566e-01,
          1.37366187e-02, 1.25740143e-02, 2.82343030e-02, 5.31854369e-02,
          7.23881945e-02, 1.33314237e-01, 3.26719403e-01, 1.76596165e-01,
          9.58667547e-02, 3.46248746e-02, 3.42470482e-02, 3.11656408e-02,
          8.67900625e-02, 1.47634760e-01, 2.73634344e-01, 3.26719403e-01,
          3.26719403e-01, 1.82448521e-01, 4.34585921e-02, 3.29754315e-02,
          7.15582073e-02, 2.08545458e-02, 3.16897705e-02, 6.85175806e-02,
          2.46105611e-01, 9.69893783e-02, 6.55987188e-02, 3.88703682e-02,
          6.75054491e-02, 3.06416839e-01, 2.01939084e-02, 4.03682701e-02,
          4.26153764e-02, 1.31995961e-01, 2.28070319e-02, 1.96516573e-01,
          1.41179323e-01, 3.06416839e-01, 1.58030838e-01, 3.71445678e-02,
          6.92711696e-02, 7.95926452e-02, 3.06416839e-01, 9.44497362e-02,
          1.11776561e-01, 5.44752032e-02, 1.51253805e-01, 3.06416839e-01,
          4.54941913e-02, 1.22615755e-01, 6.40368089e-02, 3.06416839e-01,
          5.53603061e-02, 3.06416839e-01, 2.42353439e-01, 3.06416839e-01,
          2.42991567e-01, 1.98634658e-02, 2.82108281e-02, 2.28981469e-02,
          1.17487982e-01, 2.76364442e-02, 1.33570626e-01, 1.02943897e-01,
          2.57674813e-01, 6.62277341e-02, 1.29502818e-01, 1.39157638e-01,
          9.40977037e-02, 2.83905625e-01, 1.71351224e-01, 1.75035223e-01,
          6.57382160e-02, 1.15027085e-01, 2.83905625e-01, 3.89381833e-02,
          8.60083178e-02, 3.52446884e-02, 2.83905625e-01, 5.94736822e-02,
          2.72179902e-01, 2.02433065e-01, 2.83905625e-01, 9.99544412e-02,
          1.48354009e-01, 1.89220384e-01, 7.51718283e-02, 2.83905625e-01,
          1.60636485e-01, 2.08166435e-01, 8.47131982e-02, 1.36158064e-01,
          7.06046596e-02, 2.19947591e-01, 2.86156833e-01, 1.75877124e-01,
          3.08227420e-01, 2.56226957e-01, 2.70269096e-01, 1.08880781e-01,
          1.93092629e-01, 2.96784807e-02, 4.46846522e-02, 6.63514957e-02,
          4.56095748e-02, 1.15961172e-01, 3.63985710e-02, 4.45417501e-02,
          4.14166637e-02, 5.69288209e-02, 9.77907330e-02, 2.26006523e-01,
          3.08227420e-01, 1.37391329e-01, 3.08227420e-01, 2.28913859e-01,
          2.89436638e-01, 1.21780463e-01, 1.83815569e-01, 5.60324267e-02,
          4.19430621e-02, 7.57095367e-02, 4.71266396e-02, 1.96874097e-01,
          4.19015177e-02, 4.62798849e-02, 4.56093661e-02, 7.01175705e-02,
          5.54591231e-02, 5.91191538e-02, 5.83408959e-02, 4.45280634e-02,
          3.91714461e-02, 3.54240872e-02, 4.40157615e-02, 5.16138524e-02,
          5.32213859e-02, 1.02240779e-01, 1.28197879e-01, 2.17002675e-01,
          1.05689965e-01, 2.02613592e-01, 8.52583498e-02, 1.58834979e-01,
          1.11216553e-01, 8.32289085e-02, 3.19951862e-01, 8.36406201e-02,
          6.44676313e-02, 8.55789855e-02, 3.19951862e-01, 1.21103406e-01,
          8.55007768e-02, 1.14803486e-01, 3.19951862e-01, 3.19951862e-01,
          9.94720012e-02, 8.77583176e-02, 9.59433317e-02, 3.19951862e-01,
          1.53612420e-01, 2.03407839e-01, 1.92375988e-01, 3.19951862e-01,
          1.76693514e-01, 1.23795569e-01, 2.09843814e-01, 6.47500679e-02,
          1.82301268e-01, 4.77049649e-02, 1.43084809e-01, 1.12576485e-01,
          1.77796379e-01, 2.61264890e-01, 1.35703504e-01, 2.08158046e-01,
          7.16431811e-02, 2.61264890e-01, 5.98499775e-02, 1.80024862e-01,
          1.58926636e-01, 2.61264890e-01, 2.61264890e-01, 3.38638797e-02,
          4.92135212e-02, 2.80880835e-02, 1.17264479e-01, 3.92835662e-02,
          1.51684552e-01, 1.47620961e-01, 2.61264890e-01, 2.61264890e-01,
          7.26605803e-02, 1.09801330e-01, 5.72979003e-02, 2.61264890e-01,
          4.88489196e-02, 1.22115582e-01, 1.60554379e-01, 2.61264890e-01,
          2.50965327e-01, 1.12545483e-01, 2.02580705e-01, 1.06419668e-01,
          2.50965327e-01, 1.11563087e-01, 2.50965327e-01, 2.32255667e-01,
          2.50965327e-01, 6.35607243e-02, 6.75918758e-02, 1.18666939e-01,
          7.07339719e-02, 2.16109812e-01, 8.46145079e-02, 2.00188965e-01,
          1.00781225e-01, 8.76130834e-02, 2.50965327e-01, 1.76898479e-01,
          2.50965327e-01, 1.37627319e-01, 2.50965327e-01, 8.36406499e-02,
          9.34516788e-02, 9.74233076e-02, 2.50965327e-01, 1.06744252e-01,
          1.15628108e-01, 1.72684610e-01, 9.49270651e-02, 2.50965327e-01,
          6.98564053e-02, 6.67535663e-02, 4.96658273e-02, 9.43505615e-02 ]
      - [ 2.55792052e-01, 1.42862096e-01, 1.68764636e-01, 9.77969617e-02,
          2.55792052e-01, 8.60098824e-02, 1.58994511e-01, 6.86393604e-02,
          2.55792052e-01, 2.18292937e-01, 1.16000779e-01, 1.08184487e-01,
          9.32865739e-02, 2.55792052e-01, 6.80358931e-02, 1.16401263e-01,
          6.86877891e-02, 2.25751996e-01, 2.55792052e-01, 9.23679844e-02,
          1.11763939e-01, 1.45348519e-01, 2.55792052e-01, 6.00216761e-02,
          8.59173387e-02, 7.18846023e-02, 2.55792052e-01, 2.55792052e-01,
          8.32013190e-02, 8.25258419e-02, 1.26670867e-01, 2.55792052e-01,
          4.72557396e-02, 5.69963790e-02, 5.41861542e-02, 2.46702686e-01,
          2.21775696e-01, 1.84486181e-01, 1.29252508e-01, 1.95430726e-01,
          2.21775696e-01, 1.40954643e-01, 1.43246830e-01, 1.66822955e-01,
          2.21775696e-01, 1.45965651e-01, 1.94438264e-01, 1.52451754e-01,
          1.55653298e-01, 1.16764881e-01, 1.43897519e-01, 1.16843373e-01,
          1.34372622e-01, 1.18888624e-01, 2.21775696e-01, 1.82615891e-01,
          1.42432988e-01, 2.15508431e-01, 2.21775696e-01, 1.41718715e-01,
          1.09009109e-01, 1.41516596e-01, 2.21775696e-01, 1.65552676e-01,
          1.86240956e-01, 1.41878486e-01, 1.56398222e-01, 1.18794501e-01,
          1.40764862e-01, 1.45775229e-01, 1.61188200e-01, 1.37270689e-01,
          1.84510238e-02, 5.84945530e-02, 1.77619487e-01, 1.04177825e-01,
          8.88065025e-02, 2.42071226e-02, 2.22009681e-02, 1.63570810e-02,
          1.76998768e-02, 2.08261326e-01, 2.79798597e-01, 2.79798597e-01,
          1.71680987e-01, 1.32663205e-01, 2.45470759e-02, 2.71452051e-02,
          2.00055353e-02, 7.46021196e-02, 3.65273580e-02, 7.26391599e-02,
          1.88681528e-01, 1.67227581e-01, 2.42902189e-01, 7.94076771e-02,
          1.24715567e-01, 5.02122752e-02, 4.33386266e-02, 2.79798597e-01,
          2.79798597e-01, 2.79798597e-01, 2.66313225e-01, 2.79798597e-01,
          1.31736949e-01, 2.25056380e-01, 9.63770151e-02, 2.65264899e-01,
          2.74042636e-01, 2.74042636e-01, 2.74042636e-01, 3.27814668e-02,
          2.41677277e-02, 8.73761438e-03, 9.08857118e-03, 1.00950114e-02,
          1.48977205e-01, 2.74042636e-01, 2.45974496e-01, 1.16311654e-01,
          1.90174598e-02, 1.53453732e-02, 1.32663827e-02, 3.98658849e-02,
          4.31538187e-02, 2.74042636e-01, 2.74042636e-01, 2.74042636e-01,
          1.97189346e-01, 4.37360369e-02, 5.48873842e-02, 2.61789672e-02,
          4.21943627e-02, 2.60267835e-02, 2.43419081e-01, 2.74042636e-01,
          2.74042636e-01, 1.87417075e-01, 2.49334481e-02, 2.36527529e-02,
          2.01848764e-02, 1.81700550e-02, 2.54684407e-02, 2.74042636e-01,
          2.44156107e-01, 1.48391187e-01, 2.44156107e-01, 8.49000812e-02,
          1.15098894e-01, 8.52423534e-02, 2.44156107e-01, 1.44714028e-01,
          2.44156107e-01, 6.63176700e-02, 5.79468794e-02, 1.80018052e-01,
          1.02084279e-01, 2.00355068e-01, 1.16161048e-01, 2.24745885e-01,
          9.25977826e-02, 8.83802176e-02, 2.44156107e-01, 2.44156107e-01,
          2.44156107e-01, 1.16939723e-01, 1.46156982e-01, 9.63117033e-02,
          1.39187217e-01, 1.04185447e-01, 2.44156107e-01, 8.52998123e-02,
          1.09795868e-01, 2.44156107e-01, 1.29642829e-01, 2.36457735e-01,
          1.13795124e-01, 1.56719819e-01, 8.55491832e-02, 8.84909779e-02,
          3.09258886e-02, 4.12665009e-02, 1.16319790e-01, 1.84556276e-01,
          3.61018777e-01, 1.64851591e-01, 1.16601877e-01, 5.63799627e-02,
          3.38246264e-02, 3.38637643e-02, 4.74311896e-02, 1.16103753e-01,
          2.01229975e-01, 3.61018777e-01, 1.62490189e-01, 1.07260317e-01,
          6.37209564e-02, 3.84439193e-02, 4.67490330e-02, 4.76581827e-02,
          1.25280529e-01, 2.79715359e-01, 3.61018777e-01, 1.35226592e-01,
          1.02294333e-01, 6.19118363e-02, 5.36668822e-02, 6.37303516e-02,
          6.32462576e-02, 1.13096967e-01, 3.12851250e-01, 3.61018777e-01,
          1.17144264e-01, 7.01337084e-02, 6.06103092e-02, 6.31918907e-02,
          1.30696625e-01, 4.99934517e-02, 5.63828684e-02, 1.11991860e-01,
          3.18022579e-01, 8.97663832e-02, 6.47507086e-02, 4.35473472e-02,
          1.08208485e-01, 3.18022579e-01, 3.18022579e-01, 1.68304712e-01,
          1.25770569e-01, 3.18022579e-01, 1.11338094e-01, 8.99159834e-02,
          5.36829084e-02, 3.18022579e-01, 1.01450272e-01, 5.04651666e-02,
          4.71013375e-02, 9.05471742e-02, 3.14324647e-01, 5.70329279e-02,
          4.13972251e-02, 3.59954089e-02, 8.72931629e-02, 3.18022579e-01,
          1.58013090e-01, 7.63777867e-02, 5.01391552e-02, 1.94776967e-01,
          6.40782267e-02, 5.01062497e-02, 2.87372209e-02, 2.16083005e-01,
          2.52133101e-01, 8.85455310e-02, 9.32733938e-02, 1.48272291e-01,
          2.52133101e-01, 4.16012034e-02, 9.65713263e-02, 1.14168637e-01,
          2.52133101e-01, 2.52133101e-01, 5.95262758e-02, 7.20338821e-02,
          1.07289903e-01, 2.52133101e-01, 3.60075198e-02, 6.92823306e-02,
          8.51673037e-02, 2.28174224e-01, 2.52133101e-01, 1.09900869e-01,
          8.80189091e-02, 1.84768662e-01, 2.52133101e-01, 5.07114977e-02,
          1.38039678e-01, 1.47585958e-01, 2.52133101e-01, 2.52133101e-01,
          6.76336810e-02, 6.81638643e-02, 1.18200339e-01, 2.52133101e-01,
          3.97916734e-02, 1.16309315e-01, 1.19367413e-01, 2.52133101e-01,
          1.97576046e-01, 6.17885962e-02, 6.79954588e-02, 1.05734408e-01,
          2.76106864e-01, 7.74078220e-02, 5.90505190e-02, 9.61991623e-02,
          1.56856194e-01, 1.13672018e-01, 7.60646611e-02, 6.16337806e-02,
          8.95278752e-02, 8.72932300e-02, 6.11379966e-02, 6.85929954e-02,
          9.57083032e-02, 9.07188430e-02, 2.98075646e-01, 1.97976932e-01,
          1.35118648e-01, 1.33355424e-01, 2.98075646e-01, 8.70199353e-02,
          1.38741672e-01, 1.11384653e-01, 2.98075646e-01, 2.98075646e-01,
          2.98075646e-01, 1.52465373e-01, 1.16408564e-01, 2.26081774e-01,
          5.93540147e-02, 9.28499922e-02, 8.48885104e-02, 2.98075646e-01,
          9.28474888e-02, 7.67800510e-02, 9.82220694e-02, 1.30766585e-01,
          1.91557139e-01, 6.08830564e-02, 1.19743936e-01, 5.00856452e-02,
          7.33350217e-02, 2.75472105e-01, 2.75472105e-01, 2.24033102e-01,
          1.85606450e-01, 2.69160271e-01, 1.04650639e-01, 2.08498955e-01,
          9.21516418e-02, 2.75472105e-01, 2.75472105e-01, 1.83045045e-01,
          8.77621472e-02, 5.27218953e-02, 6.52037114e-02, 2.38943528e-02,
          5.55193350e-02, 3.56459506e-02, 1.76785946e-01, 2.75472105e-01,
          2.75472105e-01, 1.82216436e-01, 6.71502575e-02, 1.09748222e-01,
          3.69109325e-02, 6.70608208e-02, 4.61308323e-02, 2.75472105e-01,
          2.82388777e-01, 2.82388777e-01, 9.48002413e-02, 2.69301701e-02,
          3.69473808e-02, 1.98453069e-02, 3.52923013e-02, 2.43824143e-02,
          2.74385065e-01, 2.82388777e-01, 2.82388777e-01, 1.50656447e-01,
          2.90092193e-02, 3.39577980e-02, 1.97999757e-02, 1.03033241e-02,
          2.41448693e-02, 2.75943846e-01, 2.82388777e-01, 2.82388777e-01,
          9.16729867e-02, 1.65938530e-02, 2.80394703e-02, 1.21641336e-02,
          1.43037746e-02, 1.51462527e-02, 2.47329965e-01, 2.82388777e-01,
          2.82388777e-01, 1.22660793e-01, 2.46344283e-02, 3.02526746e-02,
          1.70414839e-02, 1.79504324e-02, 2.38906872e-02, 2.82388777e-01,
          2.62942970e-01, 2.62942970e-01, 2.62942970e-01, 1.15067720e-01,
          1.26342818e-01, 8.03348646e-02, 7.03079849e-02, 9.34455991e-02,
          2.62942970e-01, 9.72706452e-02, 1.27248362e-01, 2.62942970e-01,
          1.10997446e-01, 1.92170009e-01, 8.81998986e-02, 9.05046463e-02,
          7.77458251e-02, 9.05707404e-02, 2.62942970e-01, 2.62942970e-01,
          2.62942970e-01, 1.01467870e-01, 1.31538436e-01, 7.24771097e-02,
          1.01744071e-01, 9.30938646e-02, 2.62942970e-01, 1.16193146e-01,
          1.05280071e-01, 1.95082337e-01, 1.10079125e-01, 2.10370302e-01,
          9.60116982e-02, 1.17554545e-01, 8.19232836e-02, 1.41544789e-01,
          5.53140752e-02, 5.51266745e-02, 1.23757459e-01, 2.49020338e-01,
          3.38175058e-01, 1.34771034e-01, 8.20569545e-02, 6.38459846e-02,
          5.02633750e-02, 7.40532055e-02, 6.81823045e-02, 1.05695568e-01,
          2.69646883e-01, 3.38175058e-01, 1.41644150e-01, 5.70200160e-02,
          6.06219657e-02, 5.44849075e-02, 4.26460430e-02, 5.62398843e-02,
          1.14321016e-01, 2.35120550e-01, 3.38175058e-01, 2.12610692e-01,
          1.11242190e-01, 8.25717151e-02, 5.34958877e-02, 4.92349081e-02,
          5.67358285e-02, 9.92494375e-02, 2.52735287e-01, 3.38175058e-01,
          2.46293649e-01, 9.57266167e-02, 8.62844959e-02, 5.51977269e-02,
          2.08690584e-01, 1.43099800e-01, 1.18702278e-01, 2.41702393e-01,
          2.75688380e-01, 1.83672860e-01, 9.46764424e-02, 1.28655732e-01,
          1.76926866e-01, 1.72994211e-01, 1.23285294e-01, 1.12995595e-01,
          9.49090496e-02, 1.68072730e-01, 1.37128338e-01, 1.16513006e-01,
          1.01902567e-01, 1.80488676e-01, 1.87722072e-01, 1.27077907e-01,
          1.22837089e-01, 2.42123082e-01, 2.75688380e-01, 2.73243755e-01,
          1.28562897e-01, 1.65408671e-01, 1.72035575e-01, 1.77937701e-01,
          1.38526693e-01, 1.39975771e-01, 1.24728017e-01, 1.46544874e-01,
          1.15958847e-01, 1.25645563e-01, 1.17026843e-01, 1.54916137e-01,
          2.54949301e-01, 7.49031305e-02, 8.59309509e-02, 1.08312562e-01,
          2.54949301e-01, 4.49305661e-02, 1.51999295e-01, 1.27819732e-01,
          2.54949301e-01, 2.54949301e-01, 6.73518404e-02, 8.13625380e-02,
          8.41786042e-02, 2.54949301e-01, 4.55615930e-02, 1.42445326e-01,
          1.08091928e-01, 2.54949301e-01, 2.54949301e-01, 8.10496882e-02,
          1.17781974e-01, 5.25745116e-02, 2.54949301e-01, 6.12034313e-02,
          1.27730936e-01, 8.90276358e-02, 2.54949301e-01, 2.54949301e-01,
          9.67496112e-02, 8.68381113e-02, 4.82727475e-02, 2.54949301e-01,
          5.79403788e-02, 1.25245363e-01, 9.75481868e-02, 2.54949301e-01,
          2.68650562e-01, 1.41198501e-01, 6.18171655e-02, 4.08198982e-02,
          2.83959448e-01, 3.49465162e-02, 7.26574361e-02, 2.83534285e-02,
          1.56161919e-01, 2.83959448e-01, 2.83959448e-01, 8.76322091e-02,
          2.17961259e-02, 1.15470275e-01, 1.51484832e-02, 3.79558988e-02,
          2.02920176e-02, 2.63053387e-01, 2.83959448e-01, 1.89769059e-01,
          7.09041953e-02, 4.34934124e-02, 2.83959448e-01, 4.13225852e-02,
          8.57298225e-02, 3.67886871e-02, 2.21138820e-01, 2.83959448e-01,
          2.83959448e-01, 9.94632989e-02, 1.88363455e-02, 1.22764565e-01,
          1.90253220e-02, 3.92690264e-02, 2.40005665e-02, 2.83959448e-01,
          2.81931341e-01, 2.81931341e-01, 1.08967967e-01, 1.12523669e-02,
          1.32686822e-02, 2.08138227e-02, 4.49931175e-02, 3.90710123e-02,
          2.73954898e-01, 2.81931341e-01, 2.81931341e-01, 1.77063808e-01,
          1.91955566e-02, 5.63278049e-02, 3.49692069e-02, 5.76830879e-02,
          5.32822013e-02, 2.81931341e-01, 2.81931341e-01, 2.81931341e-01,
          8.32311884e-02, 9.12268087e-03, 9.28981695e-03, 1.37921860e-02,
          2.49916781e-02, 2.27393582e-02, 2.41193011e-01, 2.81931341e-01,
          2.81931341e-01, 1.05656900e-01, 1.19355945e-02, 2.46263109e-02,
          1.62234399e-02, 2.87831482e-02, 2.88542937e-02, 2.60541022e-01,
          2.84793973e-01, 2.84793973e-01, 1.09802514e-01, 1.36763761e-02,
          3.43107469e-02, 1.62032917e-02, 1.66454762e-02, 1.88213401e-02,
          2.77814209e-01, 2.84793973e-01, 2.84793973e-01, 1.42946541e-01,
          2.04636492e-02, 3.42150107e-02, 1.95778646e-02, 1.81251969e-02,
          1.99383553e-02, 2.73169130e-01, 2.84793973e-01, 2.84793973e-01,
          8.50218460e-02, 8.21426511e-03, 1.75395161e-02, 1.04360059e-02,
          1.19554168e-02, 1.59445703e-02, 2.28120357e-01, 2.84793973e-01,
          2.84793973e-01, 1.31115437e-01, 1.16904657e-02, 3.34306173e-02,
          2.33961288e-02, 2.13220567e-02, 2.82881428e-02, 2.80441284e-01,
          2.58880496e-01, 2.58880496e-01, 2.58880496e-01, 1.21449158e-01,
          1.44453764e-01, 6.39338493e-02, 8.58629569e-02, 6.97409585e-02,
          2.58880496e-01, 9.09052715e-02, 1.31714895e-01, 2.58880496e-01,
          1.37292609e-01, 2.08947450e-01, 7.93752819e-02, 9.31278393e-02,
          6.05495572e-02, 1.04370698e-01, 2.58880496e-01, 2.58880496e-01,
          2.58880496e-01, 6.04440458e-02, 1.29172161e-01, 7.27862269e-02,
          1.28060088e-01, 1.22535773e-01, 2.58880496e-01, 1.04967788e-01,
          1.06959365e-01, 1.99991226e-01, 8.29024613e-02, 2.09207043e-01,
          8.13015923e-02, 1.46150753e-01, 1.00864403e-01, 1.27892837e-01,
          3.51432897e-02, 5.20207360e-02, 1.06532671e-01, 2.21481651e-01,
          3.44712973e-01, 1.99883536e-01, 9.55022722e-02, 5.62969632e-02,
          3.33049633e-02, 3.61263044e-02, 4.63788584e-02, 9.21629444e-02,
          2.24192694e-01, 3.44712973e-01, 2.43208110e-01, 9.94436964e-02,
          6.31624758e-02, 3.22722904e-02, 4.16405126e-02, 4.69833873e-02,
          8.41017589e-02, 1.75854266e-01, 3.44712973e-01, 2.48112485e-01,
          1.19689055e-01, 4.31632958e-02, 3.00240628e-02, 4.42880206e-02,
          4.45493907e-02, 7.91526511e-02, 1.76789448e-01, 3.44712973e-01,
          2.98674375e-01, 1.12849936e-01, 4.99435663e-02, 2.78811660e-02,
          1.50779918e-01, 1.07748635e-01, 1.33626953e-01, 2.13762790e-01,
          3.00632566e-01, 2.94662058e-01, 1.50191471e-01, 1.36526644e-01,
          1.24233842e-01, 1.49163336e-01, 1.22973688e-01, 1.52684957e-01,
          1.26459613e-01, 1.31620809e-01, 1.01601072e-01, 1.06887870e-01,
          1.11014493e-01, 1.24496102e-01, 1.58460990e-01, 1.18274704e-01,
          1.33480787e-01, 1.80092692e-01, 3.00632566e-01, 3.00632566e-01,
          1.76277906e-01, 1.41327366e-01, 1.31212950e-01, 1.65046573e-01,
          9.92550924e-02, 1.10052809e-01, 1.07101411e-01, 1.51148006e-01,
          1.24494568e-01, 1.53250098e-01, 1.30874321e-01, 2.09012195e-01 ]
      - [ 3.60258855e-02, 7.91894495e-02, 1.21024832e-01, 1.00716487e-01,
          3.17115337e-01, 1.13567829e-01, 4.60957587e-02, 4.17569615e-02,
          8.49906653e-02, 3.45545448e-02, 1.59367964e-01, 2.42248252e-01,
          2.04380155e-01, 3.17115337e-01, 2.35847235e-01, 7.99496099e-02,
          7.40983635e-02, 1.49836376e-01, 2.94716880e-02, 9.31009427e-02,
          1.09752372e-01, 1.24822848e-01, 3.17115337e-01, 1.23078980e-01,
          4.42017205e-02, 2.92001106e-02, 5.58058470e-02, 2.65152752e-02,
          1.84881479e-01, 2.28253335e-01, 2.93249130e-01, 3.17115337e-01,
          2.67390907e-01, 9.13181528e-02, 4.75282706e-02, 8.90062228e-02,
          1.25274926e-01, 1.11633949e-01, 9.66100395e-02, 5.66359796e-02,
          2.55924940e-01, 7.29392245e-02, 5.40929362e-02, 8.36107209e-02,
          1.27503753e-01, 2.55924940e-01, 2.55924940e-01, 2.55924940e-01,
          7.08265156e-02, 2.55924940e-01, 8.91364142e-02, 2.01625645e-01,
          2.55924940e-01, 2.55924940e-01, 8.36108848e-02, 8.40175673e-02,
          7.35225603e-02, 7.40477890e-02, 2.55861819e-01, 8.22087675e-02,
          5.64385839e-02, 6.51257560e-02, 1.08343117e-01, 2.55924940e-01,
          2.11894810e-01, 1.50220498e-01, 2.94740703e-02, 1.44815147e-01,
          5.20772971e-02, 1.53390840e-01, 2.24242896e-01, 2.55924940e-01,
          2.55882353e-01, 2.33482167e-01, 2.33447239e-01, 6.39401898e-02,
          1.99985817e-01, 6.20440952e-02, 1.77670226e-01, 1.89147979e-01,
          2.55882353e-01, 1.56637803e-01, 1.12718418e-01, 2.15062350e-01,
          1.14525698e-01, 2.55882353e-01, 1.37492374e-01, 1.86627001e-01,
          6.11560270e-02, 1.73733488e-01, 2.02976406e-01, 1.37567818e-01,
